digraph Tree {
node [shape=box, style="filled, rounded", color="black", fontname="helvetica"] ;
edge [fontname="helvetica"] ;
0 [label="Curricular units 2nd sem (approved) <= -0.311\ngini = 0.613\nsamples = 3539\nvalue = [1791, 643, 1105]\nclass = Dropout", fillcolor="#f8dbc7"] ;
1 [label="Curricular units 2nd sem (approved) <= -0.982\ngini = 0.438\nsamples = 1165\nvalue = [90.0, 240.0, 835.0]\nclass = Enrolled", fillcolor="#ae80ee"] ;
0 -> 1 [labeldistance=2.5, labelangle=45, headlabel="True"] ;
2 [label="Curricular units 1st sem (enrolled) <= -2.321\ngini = 0.31\nsamples = 786\nvalue = [62, 79, 645]\nclass = Enrolled", fillcolor="#9a60ea"] ;
1 -> 2 ;
3 [label="Tuition fees up to date <= -1.192\ngini = 0.624\nsamples = 156\nvalue = [62.0, 26.0, 68.0]\nclass = Enrolled", fillcolor="#f7f2fd"] ;
2 -> 3 ;
4 [label="Admission grade <= 1.25\ngini = 0.254\nsamples = 21\nvalue = [2, 1, 18]\nclass = Enrolled", fillcolor="#9558e9"] ;
3 -> 4 ;
5 [label="Father's qualification <= 0.99\ngini = 0.117\nsamples = 16\nvalue = [0, 1, 15]\nclass = Enrolled", fillcolor="#8946e7"] ;
4 -> 5 ;
6 [label="gini = 0.0\nsamples = 14\nvalue = [0, 0, 14]\nclass = Enrolled", fillcolor="#8139e5"] ;
5 -> 6 ;
7 [label="GDP <= -0.893\ngini = 0.5\nsamples = 2\nvalue = [0, 1, 1]\nclass = Graduate", fillcolor="#ffffff"] ;
5 -> 7 ;
8 [label="gini = 0.0\nsamples = 1\nvalue = [0, 1, 0]\nclass = Graduate", fillcolor="#39e581"] ;
7 -> 8 ;
9 [label="gini = 0.0\nsamples = 1\nvalue = [0, 0, 1]\nclass = Enrolled", fillcolor="#8139e5"] ;
7 -> 9 ;
10 [label="Unemployment rate <= 0.37\ngini = 0.48\nsamples = 5\nvalue = [2, 0, 3]\nclass = Enrolled", fillcolor="#d5bdf6"] ;
4 -> 10 ;
11 [label="gini = 0.0\nsamples = 3\nvalue = [0, 0, 3]\nclass = Enrolled", fillcolor="#8139e5"] ;
10 -> 11 ;
12 [label="gini = 0.0\nsamples = 2\nvalue = [2, 0, 0]\nclass = Dropout", fillcolor="#e58139"] ;
10 -> 12 ;
13 [label="Age at enrollment <= 0.309\ngini = 0.631\nsamples = 135\nvalue = [60, 25, 50]\nclass = Dropout", fillcolor="#fcf0e8"] ;
3 -> 13 ;
14 [label="Admission grade <= 0.663\ngini = 0.629\nsamples = 127\nvalue = [60, 25, 42]\nclass = Dropout", fillcolor="#f9e4d5"] ;
13 -> 14 ;
15 [label="Previous qualification (grade) <= -1.333\ngini = 0.64\nsamples = 65\nvalue = [22, 14, 29]\nclass = Enrolled", fillcolor="#eadffb"] ;
14 -> 15 ;
16 [label="gini = 0.0\nsamples = 3\nvalue = [3, 0, 0]\nclass = Dropout", fillcolor="#e58139"] ;
15 -> 16 ;
17 [label="Previous qualification (grade) <= 0.291\ngini = 0.636\nsamples = 62\nvalue = [19, 14, 29]\nclass = Enrolled", fillcolor="#e2d1f9"] ;
15 -> 17 ;
18 [label="Application order <= -0.178\ngini = 0.609\nsamples = 40\nvalue = [8, 11, 21]\nclass = Enrolled", fillcolor="#d4bbf6"] ;
17 -> 18 ;
19 [label="Inflation rate <= -0.606\ngini = 0.48\nsamples = 23\nvalue = [1, 7, 15]\nclass = Enrolled", fillcolor="#c09cf2"] ;
18 -> 19 ;
20 [label="gini = 0.0\nsamples = 7\nvalue = [0, 0, 7]\nclass = Enrolled", fillcolor="#8139e5"] ;
19 -> 20 ;
21 [label="Admission grade <= 0.383\ngini = 0.555\nsamples = 16\nvalue = [1, 7, 8]\nclass = Enrolled", fillcolor="#f1e9fc"] ;
19 -> 21 ;
22 [label="Previous qualification (grade) <= -0.54\ngini = 0.521\nsamples = 13\nvalue = [1, 4, 8]\nclass = Enrolled", fillcolor="#c7a7f3"] ;
21 -> 22 ;
23 [label="Father's qualification <= -0.968\ngini = 0.375\nsamples = 4\nvalue = [0, 3, 1]\nclass = Graduate", fillcolor="#7beeab"] ;
22 -> 23 ;
24 [label="gini = 0.0\nsamples = 3\nvalue = [0, 3, 0]\nclass = Graduate", fillcolor="#39e581"] ;
23 -> 24 ;
25 [label="gini = 0.0\nsamples = 1\nvalue = [0, 0, 1]\nclass = Enrolled", fillcolor="#8139e5"] ;
23 -> 25 ;
26 [label="Admission grade <= -0.646\ngini = 0.37\nsamples = 9\nvalue = [1, 1, 7]\nclass = Enrolled", fillcolor="#a06aec"] ;
22 -> 26 ;
27 [label="gini = 0.0\nsamples = 1\nvalue = [0, 1, 0]\nclass = Graduate", fillcolor="#39e581"] ;
26 -> 27 ;
28 [label="Unemployment rate <= -0.885\ngini = 0.219\nsamples = 8\nvalue = [1, 0, 7]\nclass = Enrolled", fillcolor="#9355e9"] ;
26 -> 28 ;
29 [label="Age at enrollment <= -0.566\ngini = 0.5\nsamples = 2\nvalue = [1, 0, 1]\nclass = Dropout", fillcolor="#ffffff"] ;
28 -> 29 ;
30 [label="gini = 0.0\nsamples = 1\nvalue = [0, 0, 1]\nclass = Enrolled", fillcolor="#8139e5"] ;
29 -> 30 ;
31 [label="gini = 0.0\nsamples = 1\nvalue = [1, 0, 0]\nclass = Dropout", fillcolor="#e58139"] ;
29 -> 31 ;
32 [label="gini = 0.0\nsamples = 6\nvalue = [0, 0, 6]\nclass = Enrolled", fillcolor="#8139e5"] ;
28 -> 32 ;
33 [label="gini = 0.0\nsamples = 3\nvalue = [0, 3, 0]\nclass = Graduate", fillcolor="#39e581"] ;
21 -> 33 ;
34 [label="Father's qualification <= 1.055\ngini = 0.651\nsamples = 17\nvalue = [7, 4, 6]\nclass = Dropout", fillcolor="#fdf4ed"] ;
18 -> 34 ;
35 [label="Father's occupation <= -0.07\ngini = 0.604\nsamples = 15\nvalue = [7, 2, 6]\nclass = Dropout", fillcolor="#fcf1e9"] ;
34 -> 35 ;
36 [label="Previous qualification (grade) <= 0.03\ngini = 0.611\nsamples = 12\nvalue = [4, 2, 6]\nclass = Enrolled", fillcolor="#e0cef8"] ;
35 -> 36 ;
37 [label="Application order <= 2.098\ngini = 0.642\nsamples = 9\nvalue = [4, 2, 3]\nclass = Dropout", fillcolor="#fbeade"] ;
36 -> 37 ;
38 [label="Admission grade <= -0.49\ngini = 0.571\nsamples = 7\nvalue = [4, 2, 1]\nclass = Dropout", fillcolor="#f5cdb0"] ;
37 -> 38 ;
39 [label="Previous qualification (grade) <= -0.767\ngini = 0.5\nsamples = 2\nvalue = [0, 1, 1]\nclass = Graduate", fillcolor="#ffffff"] ;
38 -> 39 ;
40 [label="gini = 0.0\nsamples = 1\nvalue = [0, 0, 1]\nclass = Enrolled", fillcolor="#8139e5"] ;
39 -> 40 ;
41 [label="gini = 0.0\nsamples = 1\nvalue = [0, 1, 0]\nclass = Graduate", fillcolor="#39e581"] ;
39 -> 41 ;
42 [label="Previous qualification (grade) <= -0.049\ngini = 0.32\nsamples = 5\nvalue = [4, 1, 0]\nclass = Dropout", fillcolor="#eca06a"] ;
38 -> 42 ;
43 [label="gini = 0.0\nsamples = 4\nvalue = [4, 0, 0]\nclass = Dropout", fillcolor="#e58139"] ;
42 -> 43 ;
44 [label="gini = 0.0\nsamples = 1\nvalue = [0, 1, 0]\nclass = Graduate", fillcolor="#39e581"] ;
42 -> 44 ;
45 [label="gini = 0.0\nsamples = 2\nvalue = [0, 0, 2]\nclass = Enrolled", fillcolor="#8139e5"] ;
37 -> 45 ;
46 [label="gini = 0.0\nsamples = 3\nvalue = [0, 0, 3]\nclass = Enrolled", fillcolor="#8139e5"] ;
36 -> 46 ;
47 [label="gini = 0.0\nsamples = 3\nvalue = [3, 0, 0]\nclass = Dropout", fillcolor="#e58139"] ;
35 -> 47 ;
48 [label="gini = 0.0\nsamples = 2\nvalue = [0, 2, 0]\nclass = Graduate", fillcolor="#39e581"] ;
34 -> 48 ;
49 [label="Application mode <= -0.129\ngini = 0.599\nsamples = 22\nvalue = [11, 3, 8]\nclass = Dropout", fillcolor="#f9e4d5"] ;
17 -> 49 ;
50 [label="Father's occupation <= -0.376\ngini = 0.492\nsamples = 16\nvalue = [9, 0, 7]\nclass = Dropout", fillcolor="#f9e3d3"] ;
49 -> 50 ;
51 [label="gini = 0.0\nsamples = 2\nvalue = [0, 0, 2]\nclass = Enrolled", fillcolor="#8139e5"] ;
50 -> 51 ;
52 [label="Father's occupation <= -0.127\ngini = 0.459\nsamples = 14\nvalue = [9, 0, 5]\nclass = Dropout", fillcolor="#f3c7a7"] ;
50 -> 52 ;
53 [label="gini = 0.0\nsamples = 6\nvalue = [6, 0, 0]\nclass = Dropout", fillcolor="#e58139"] ;
52 -> 53 ;
54 [label="Age at enrollment <= -0.633\ngini = 0.469\nsamples = 8\nvalue = [3, 0, 5]\nclass = Enrolled", fillcolor="#cdb0f5"] ;
52 -> 54 ;
55 [label="gini = 0.0\nsamples = 3\nvalue = [3, 0, 0]\nclass = Dropout", fillcolor="#e58139"] ;
54 -> 55 ;
56 [label="gini = 0.0\nsamples = 5\nvalue = [0, 0, 5]\nclass = Enrolled", fillcolor="#8139e5"] ;
54 -> 56 ;
57 [label="Admission grade <= -1.353\ngini = 0.611\nsamples = 6\nvalue = [2, 3, 1]\nclass = Graduate", fillcolor="#cef8e0"] ;
49 -> 57 ;
58 [label="gini = 0.0\nsamples = 1\nvalue = [0, 0, 1]\nclass = Enrolled", fillcolor="#8139e5"] ;
57 -> 58 ;
59 [label="GDP <= -0.307\ngini = 0.48\nsamples = 5\nvalue = [2, 3, 0]\nclass = Graduate", fillcolor="#bdf6d5"] ;
57 -> 59 ;
60 [label="Admission grade <= 0.528\ngini = 0.444\nsamples = 3\nvalue = [2, 1, 0]\nclass = Dropout", fillcolor="#f2c09c"] ;
59 -> 60 ;
61 [label="gini = 0.0\nsamples = 2\nvalue = [2, 0, 0]\nclass = Dropout", fillcolor="#e58139"] ;
60 -> 61 ;
62 [label="gini = 0.0\nsamples = 1\nvalue = [0, 1, 0]\nclass = Graduate", fillcolor="#39e581"] ;
60 -> 62 ;
63 [label="gini = 0.0\nsamples = 2\nvalue = [0, 2, 0]\nclass = Graduate", fillcolor="#39e581"] ;
59 -> 63 ;
64 [label="Previous qualification (grade) <= 1.953\ngini = 0.549\nsamples = 62\nvalue = [38, 11, 13]\nclass = Dropout", fillcolor="#f2bf9a"] ;
14 -> 64 ;
65 [label="Previous qualification (grade) <= 0.593\ngini = 0.473\nsamples = 48\nvalue = [33, 10, 5]\nclass = Dropout", fillcolor="#efb387"] ;
64 -> 65 ;
66 [label="International <= 3.07\ngini = 0.608\nsamples = 21\nvalue = [10, 8, 3]\nclass = Dropout", fillcolor="#fbece1"] ;
65 -> 66 ;
67 [label="Unemployment rate <= 0.651\ngini = 0.543\nsamples = 19\nvalue = [10, 8, 1]\nclass = Dropout", fillcolor="#fae8db"] ;
66 -> 67 ;
68 [label="Age at enrollment <= -0.633\ngini = 0.5\nsamples = 14\nvalue = [9, 4, 1]\nclass = Dropout", fillcolor="#f2c09c"] ;
67 -> 68 ;
69 [label="Admission grade <= 0.749\ngini = 0.375\nsamples = 4\nvalue = [1, 3, 0]\nclass = Graduate", fillcolor="#7beeab"] ;
68 -> 69 ;
70 [label="gini = 0.0\nsamples = 1\nvalue = [1, 0, 0]\nclass = Dropout", fillcolor="#e58139"] ;
69 -> 70 ;
71 [label="gini = 0.0\nsamples = 3\nvalue = [0, 3, 0]\nclass = Graduate", fillcolor="#39e581"] ;
69 -> 71 ;
72 [label="Debtor <= 1.218\ngini = 0.34\nsamples = 10\nvalue = [8, 1, 1]\nclass = Dropout", fillcolor="#eb9d65"] ;
68 -> 72 ;
73 [label="Previous qualification (grade) <= 0.517\ngini = 0.198\nsamples = 9\nvalue = [8, 0, 1]\nclass = Dropout", fillcolor="#e89152"] ;
72 -> 73 ;
74 [label="gini = 0.0\nsamples = 8\nvalue = [8, 0, 0]\nclass = Dropout", fillcolor="#e58139"] ;
73 -> 74 ;
75 [label="gini = 0.0\nsamples = 1\nvalue = [0, 0, 1]\nclass = Enrolled", fillcolor="#8139e5"] ;
73 -> 75 ;
76 [label="gini = 0.0\nsamples = 1\nvalue = [0, 1, 0]\nclass = Graduate", fillcolor="#39e581"] ;
72 -> 76 ;
77 [label="Debtor <= 1.218\ngini = 0.32\nsamples = 5\nvalue = [1, 4, 0]\nclass = Graduate", fillcolor="#6aeca0"] ;
67 -> 77 ;
78 [label="gini = 0.0\nsamples = 4\nvalue = [0, 4, 0]\nclass = Graduate", fillcolor="#39e581"] ;
77 -> 78 ;
79 [label="gini = 0.0\nsamples = 1\nvalue = [1, 0, 0]\nclass = Dropout", fillcolor="#e58139"] ;
77 -> 79 ;
80 [label="gini = 0.0\nsamples = 2\nvalue = [0, 0, 2]\nclass = Enrolled", fillcolor="#8139e5"] ;
66 -> 80 ;
81 [label="Unemployment rate <= 1.606\ngini = 0.263\nsamples = 27\nvalue = [23, 2, 2]\nclass = Dropout", fillcolor="#e99559"] ;
65 -> 81 ;
82 [label="Previous qualification (grade) <= 1.839\ngini = 0.21\nsamples = 26\nvalue = [23, 2, 1]\nclass = Dropout", fillcolor="#e89152"] ;
81 -> 82 ;
83 [label="Unemployment rate <= 1.175\ngini = 0.15\nsamples = 25\nvalue = [23, 1, 1]\nclass = Dropout", fillcolor="#e78c49"] ;
82 -> 83 ;
84 [label="GDP <= 0.773\ngini = 0.087\nsamples = 22\nvalue = [21, 1, 0]\nclass = Dropout", fillcolor="#e68742"] ;
83 -> 84 ;
85 [label="gini = 0.0\nsamples = 16\nvalue = [16, 0, 0]\nclass = Dropout", fillcolor="#e58139"] ;
84 -> 85 ;
86 [label="Mother's qualification <= -1.083\ngini = 0.278\nsamples = 6\nvalue = [5, 1, 0]\nclass = Dropout", fillcolor="#ea9a61"] ;
84 -> 86 ;
87 [label="gini = 0.0\nsamples = 1\nvalue = [0, 1, 0]\nclass = Graduate", fillcolor="#39e581"] ;
86 -> 87 ;
88 [label="gini = 0.0\nsamples = 5\nvalue = [5, 0, 0]\nclass = Dropout", fillcolor="#e58139"] ;
86 -> 88 ;
89 [label="Father's occupation <= -0.376\ngini = 0.444\nsamples = 3\nvalue = [2, 0, 1]\nclass = Dropout", fillcolor="#f2c09c"] ;
83 -> 89 ;
90 [label="gini = 0.0\nsamples = 1\nvalue = [0, 0, 1]\nclass = Enrolled", fillcolor="#8139e5"] ;
89 -> 90 ;
91 [label="gini = 0.0\nsamples = 2\nvalue = [2, 0, 0]\nclass = Dropout", fillcolor="#e58139"] ;
89 -> 91 ;
92 [label="gini = 0.0\nsamples = 1\nvalue = [0, 1, 0]\nclass = Graduate", fillcolor="#39e581"] ;
82 -> 92 ;
93 [label="gini = 0.0\nsamples = 1\nvalue = [0, 0, 1]\nclass = Enrolled", fillcolor="#8139e5"] ;
81 -> 93 ;
94 [label="Age at enrollment <= -0.633\ngini = 0.541\nsamples = 14\nvalue = [5, 1, 8]\nclass = Enrolled", fillcolor="#d5bdf6"] ;
64 -> 94 ;
95 [label="Father's occupation <= -0.261\ngini = 0.568\nsamples = 9\nvalue = [5, 1, 3]\nclass = Dropout", fillcolor="#f6d5bd"] ;
94 -> 95 ;
96 [label="GDP <= 0.564\ngini = 0.375\nsamples = 4\nvalue = [0, 1, 3]\nclass = Enrolled", fillcolor="#ab7bee"] ;
95 -> 96 ;
97 [label="gini = 0.0\nsamples = 3\nvalue = [0, 0, 3]\nclass = Enrolled", fillcolor="#8139e5"] ;
96 -> 97 ;
98 [label="gini = 0.0\nsamples = 1\nvalue = [0, 1, 0]\nclass = Graduate", fillcolor="#39e581"] ;
96 -> 98 ;
99 [label="gini = 0.0\nsamples = 5\nvalue = [5, 0, 0]\nclass = Dropout", fillcolor="#e58139"] ;
95 -> 99 ;
100 [label="gini = 0.0\nsamples = 5\nvalue = [0, 0, 5]\nclass = Enrolled", fillcolor="#8139e5"] ;
94 -> 100 ;
101 [label="gini = 0.0\nsamples = 8\nvalue = [0, 0, 8]\nclass = Enrolled", fillcolor="#8139e5"] ;
13 -> 101 ;
102 [label="Mother's occupation <= 4.312\ngini = 0.154\nsamples = 630\nvalue = [0.0, 53.0, 577.0]\nclass = Enrolled", fillcolor="#8d4be7"] ;
2 -> 102 ;
103 [label="Curricular units 2nd sem (evaluations) <= -0.132\ngini = 0.14\nsamples = 622\nvalue = [0, 47, 575]\nclass = Enrolled", fillcolor="#8b49e7"] ;
102 -> 103 ;
104 [label="Curricular units 2nd sem (grade) <= 0.82\ngini = 0.061\nsamples = 416\nvalue = [0, 13, 403]\nclass = Enrolled", fillcolor="#853fe6"] ;
103 -> 104 ;
105 [label="Previous qualification (grade) <= -2.504\ngini = 0.052\nsamples = 414\nvalue = [0, 11, 403]\nclass = Enrolled", fillcolor="#843ee6"] ;
104 -> 105 ;
106 [label="gini = 0.0\nsamples = 1\nvalue = [0, 1, 0]\nclass = Graduate", fillcolor="#39e581"] ;
105 -> 106 ;
107 [label="Application mode <= 1.362\ngini = 0.047\nsamples = 413\nvalue = [0, 10, 403]\nclass = Enrolled", fillcolor="#843ee6"] ;
105 -> 107 ;
108 [label="Course <= 0.127\ngini = 0.032\nsamples = 370\nvalue = [0, 6, 364]\nclass = Enrolled", fillcolor="#833ce5"] ;
107 -> 108 ;
109 [label="Curricular units 2nd sem (evaluations) <= -0.638\ngini = 0.098\nsamples = 77\nvalue = [0, 4, 73]\nclass = Enrolled", fillcolor="#8844e6"] ;
108 -> 109 ;
110 [label="gini = 0.0\nsamples = 47\nvalue = [0, 0, 47]\nclass = Enrolled", fillcolor="#8139e5"] ;
109 -> 110 ;
111 [label="Inflation rate <= 1.46\ngini = 0.231\nsamples = 30\nvalue = [0, 4, 26]\nclass = Enrolled", fillcolor="#9457e9"] ;
109 -> 111 ;
112 [label="Admission grade <= -0.304\ngini = 0.185\nsamples = 29\nvalue = [0, 3, 26]\nclass = Enrolled", fillcolor="#9050e8"] ;
111 -> 112 ;
113 [label="gini = 0.0\nsamples = 17\nvalue = [0, 0, 17]\nclass = Enrolled", fillcolor="#8139e5"] ;
112 -> 113 ;
114 [label="Curricular units 1st sem (evaluations) <= -0.416\ngini = 0.375\nsamples = 12\nvalue = [0, 3, 9]\nclass = Enrolled", fillcolor="#ab7bee"] ;
112 -> 114 ;
115 [label="Debtor <= 1.218\ngini = 0.5\nsamples = 6\nvalue = [0, 3, 3]\nclass = Graduate", fillcolor="#ffffff"] ;
114 -> 115 ;
116 [label="Curricular units 1st sem (approved) <= -1.368\ngini = 0.375\nsamples = 4\nvalue = [0, 1, 3]\nclass = Enrolled", fillcolor="#ab7bee"] ;
115 -> 116 ;
117 [label="gini = 0.0\nsamples = 3\nvalue = [0, 0, 3]\nclass = Enrolled", fillcolor="#8139e5"] ;
116 -> 117 ;
118 [label="gini = 0.0\nsamples = 1\nvalue = [0, 1, 0]\nclass = Graduate", fillcolor="#39e581"] ;
116 -> 118 ;
119 [label="gini = 0.0\nsamples = 2\nvalue = [0, 2, 0]\nclass = Graduate", fillcolor="#39e581"] ;
115 -> 119 ;
120 [label="gini = 0.0\nsamples = 6\nvalue = [0, 0, 6]\nclass = Enrolled", fillcolor="#8139e5"] ;
114 -> 120 ;
121 [label="gini = 0.0\nsamples = 1\nvalue = [0, 1, 0]\nclass = Graduate", fillcolor="#39e581"] ;
111 -> 121 ;
122 [label="Marital Status <= 3.081\ngini = 0.014\nsamples = 293\nvalue = [0, 2, 291]\nclass = Enrolled", fillcolor="#823ae5"] ;
108 -> 122 ;
123 [label="Inflation rate <= -1.295\ngini = 0.007\nsamples = 280\nvalue = [0, 1, 279]\nclass = Enrolled", fillcolor="#813ae5"] ;
122 -> 123 ;
124 [label="Course <= 0.499\ngini = 0.067\nsamples = 29\nvalue = [0, 1, 28]\nclass = Enrolled", fillcolor="#8640e6"] ;
123 -> 124 ;
125 [label="gini = 0.0\nsamples = 26\nvalue = [0, 0, 26]\nclass = Enrolled", fillcolor="#8139e5"] ;
124 -> 125 ;
126 [label="Gender <= 0.301\ngini = 0.444\nsamples = 3\nvalue = [0, 1, 2]\nclass = Enrolled", fillcolor="#c09cf2"] ;
124 -> 126 ;
127 [label="gini = 0.0\nsamples = 1\nvalue = [0, 1, 0]\nclass = Graduate", fillcolor="#39e581"] ;
126 -> 127 ;
128 [label="gini = 0.0\nsamples = 2\nvalue = [0, 0, 2]\nclass = Enrolled", fillcolor="#8139e5"] ;
126 -> 128 ;
129 [label="gini = 0.0\nsamples = 251\nvalue = [0, 0, 251]\nclass = Enrolled", fillcolor="#8139e5"] ;
123 -> 129 ;
130 [label="Daytime/evening attendance <= -1.216\ngini = 0.142\nsamples = 13\nvalue = [0, 1, 12]\nclass = Enrolled", fillcolor="#8c49e7"] ;
122 -> 130 ;
131 [label="gini = 0.0\nsamples = 1\nvalue = [0, 1, 0]\nclass = Graduate", fillcolor="#39e581"] ;
130 -> 131 ;
132 [label="gini = 0.0\nsamples = 12\nvalue = [0, 0, 12]\nclass = Enrolled", fillcolor="#8139e5"] ;
130 -> 132 ;
133 [label="Nacionality <= 3.228\ngini = 0.169\nsamples = 43\nvalue = [0, 4, 39]\nclass = Enrolled", fillcolor="#8e4de8"] ;
107 -> 133 ;
134 [label="Course <= 0.138\ngini = 0.133\nsamples = 42\nvalue = [0, 3, 39]\nclass = Enrolled", fillcolor="#8b48e7"] ;
133 -> 134 ;
135 [label="Mother's qualification <= -0.569\ngini = 0.375\nsamples = 12\nvalue = [0, 3, 9]\nclass = Enrolled", fillcolor="#ab7bee"] ;
134 -> 135 ;
136 [label="Age at enrollment <= 0.646\ngini = 0.375\nsamples = 4\nvalue = [0, 3, 1]\nclass = Graduate", fillcolor="#7beeab"] ;
135 -> 136 ;
137 [label="gini = 0.0\nsamples = 3\nvalue = [0, 3, 0]\nclass = Graduate", fillcolor="#39e581"] ;
136 -> 137 ;
138 [label="gini = 0.0\nsamples = 1\nvalue = [0, 0, 1]\nclass = Enrolled", fillcolor="#8139e5"] ;
136 -> 138 ;
139 [label="gini = 0.0\nsamples = 8\nvalue = [0, 0, 8]\nclass = Enrolled", fillcolor="#8139e5"] ;
135 -> 139 ;
140 [label="gini = 0.0\nsamples = 30\nvalue = [0, 0, 30]\nclass = Enrolled", fillcolor="#8139e5"] ;
134 -> 140 ;
141 [label="gini = 0.0\nsamples = 1\nvalue = [0, 1, 0]\nclass = Graduate", fillcolor="#39e581"] ;
133 -> 141 ;
142 [label="gini = 0.0\nsamples = 2\nvalue = [0, 2, 0]\nclass = Graduate", fillcolor="#39e581"] ;
104 -> 142 ;
143 [label="Tuition fees up to date <= -1.192\ngini = 0.276\nsamples = 206\nvalue = [0, 34, 172]\nclass = Enrolled", fillcolor="#9a60ea"] ;
103 -> 143 ;
144 [label="Age at enrollment <= -0.633\ngini = 0.028\nsamples = 70\nvalue = [0, 1, 69]\nclass = Enrolled", fillcolor="#833ce5"] ;
143 -> 144 ;
145 [label="Gender <= 0.301\ngini = 0.375\nsamples = 4\nvalue = [0, 1, 3]\nclass = Enrolled", fillcolor="#ab7bee"] ;
144 -> 145 ;
146 [label="gini = 0.0\nsamples = 3\nvalue = [0, 0, 3]\nclass = Enrolled", fillcolor="#8139e5"] ;
145 -> 146 ;
147 [label="gini = 0.0\nsamples = 1\nvalue = [0, 1, 0]\nclass = Graduate", fillcolor="#39e581"] ;
145 -> 147 ;
148 [label="gini = 0.0\nsamples = 66\nvalue = [0, 0, 66]\nclass = Enrolled", fillcolor="#8139e5"] ;
144 -> 148 ;
149 [label="Inflation rate <= -1.295\ngini = 0.368\nsamples = 136\nvalue = [0, 33, 103]\nclass = Enrolled", fillcolor="#a978ed"] ;
143 -> 149 ;
150 [label="Admission grade <= -0.48\ngini = 0.495\nsamples = 20\nvalue = [0, 11, 9]\nclass = Graduate", fillcolor="#dbfae8"] ;
149 -> 150 ;
151 [label="Course <= 0.323\ngini = 0.245\nsamples = 7\nvalue = [0, 1, 6]\nclass = Enrolled", fillcolor="#965ae9"] ;
150 -> 151 ;
152 [label="gini = 0.0\nsamples = 6\nvalue = [0, 0, 6]\nclass = Enrolled", fillcolor="#8139e5"] ;
151 -> 152 ;
153 [label="gini = 0.0\nsamples = 1\nvalue = [0, 1, 0]\nclass = Graduate", fillcolor="#39e581"] ;
151 -> 153 ;
154 [label="Previous qualification (grade) <= 1.197\ngini = 0.355\nsamples = 13\nvalue = [0, 10, 3]\nclass = Graduate", fillcolor="#74eda7"] ;
150 -> 154 ;
155 [label="Mother's occupation <= 1.409\ngini = 0.165\nsamples = 11\nvalue = [0, 10, 1]\nclass = Graduate", fillcolor="#4de88e"] ;
154 -> 155 ;
156 [label="gini = 0.0\nsamples = 10\nvalue = [0, 10, 0]\nclass = Graduate", fillcolor="#39e581"] ;
155 -> 156 ;
157 [label="gini = 0.0\nsamples = 1\nvalue = [0, 0, 1]\nclass = Enrolled", fillcolor="#8139e5"] ;
155 -> 157 ;
158 [label="gini = 0.0\nsamples = 2\nvalue = [0, 0, 2]\nclass = Enrolled", fillcolor="#8139e5"] ;
154 -> 158 ;
159 [label="Previous qualification <= 2.44\ngini = 0.307\nsamples = 116\nvalue = [0, 22, 94]\nclass = Enrolled", fillcolor="#9e67eb"] ;
149 -> 159 ;
160 [label="Previous qualification (grade) <= -1.295\ngini = 0.276\nsamples = 109\nvalue = [0, 18, 91]\nclass = Enrolled", fillcolor="#9a60ea"] ;
159 -> 160 ;
161 [label="Application mode <= 0.531\ngini = 0.494\nsamples = 9\nvalue = [0, 4, 5]\nclass = Enrolled", fillcolor="#e6d7fa"] ;
160 -> 161 ;
162 [label="GDP <= 0.823\ngini = 0.278\nsamples = 6\nvalue = [0, 1, 5]\nclass = Enrolled", fillcolor="#9a61ea"] ;
161 -> 162 ;
163 [label="gini = 0.0\nsamples = 5\nvalue = [0, 0, 5]\nclass = Enrolled", fillcolor="#8139e5"] ;
162 -> 163 ;
164 [label="gini = 0.0\nsamples = 1\nvalue = [0, 1, 0]\nclass = Graduate", fillcolor="#39e581"] ;
162 -> 164 ;
165 [label="gini = 0.0\nsamples = 3\nvalue = [0, 3, 0]\nclass = Graduate", fillcolor="#39e581"] ;
161 -> 165 ;
166 [label="Curricular units 1st sem (approved) <= -0.389\ngini = 0.241\nsamples = 100\nvalue = [0.0, 14.0, 86.0]\nclass = Enrolled", fillcolor="#9659e9"] ;
160 -> 166 ;
167 [label="Unemployment rate <= -0.642\ngini = 0.162\nsamples = 79\nvalue = [0, 7, 72]\nclass = Enrolled", fillcolor="#8d4ce8"] ;
166 -> 167 ;
168 [label="Father's occupation <= -0.261\ngini = 0.302\nsamples = 27\nvalue = [0, 5, 22]\nclass = Enrolled", fillcolor="#9e66eb"] ;
167 -> 168 ;
169 [label="gini = 0.0\nsamples = 14\nvalue = [0, 0, 14]\nclass = Enrolled", fillcolor="#8139e5"] ;
168 -> 169 ;
170 [label="Mother's qualification <= 0.555\ngini = 0.473\nsamples = 13\nvalue = [0, 5, 8]\nclass = Enrolled", fillcolor="#d0b5f5"] ;
168 -> 170 ;
171 [label="Mother's qualification <= -0.248\ngini = 0.469\nsamples = 8\nvalue = [0, 5, 3]\nclass = Graduate", fillcolor="#b0f5cd"] ;
170 -> 171 ;
172 [label="Age at enrollment <= -0.633\ngini = 0.375\nsamples = 4\nvalue = [0, 1, 3]\nclass = Enrolled", fillcolor="#ab7bee"] ;
171 -> 172 ;
173 [label="gini = 0.0\nsamples = 1\nvalue = [0, 1, 0]\nclass = Graduate", fillcolor="#39e581"] ;
172 -> 173 ;
174 [label="gini = 0.0\nsamples = 3\nvalue = [0, 0, 3]\nclass = Enrolled", fillcolor="#8139e5"] ;
172 -> 174 ;
175 [label="gini = 0.0\nsamples = 4\nvalue = [0, 4, 0]\nclass = Graduate", fillcolor="#39e581"] ;
171 -> 175 ;
176 [label="gini = 0.0\nsamples = 5\nvalue = [0, 0, 5]\nclass = Enrolled", fillcolor="#8139e5"] ;
170 -> 176 ;
177 [label="Application order <= 1.34\ngini = 0.074\nsamples = 52\nvalue = [0, 2, 50]\nclass = Enrolled", fillcolor="#8641e6"] ;
167 -> 177 ;
178 [label="Curricular units 1st sem (evaluations) <= 1.488\ngini = 0.041\nsamples = 48\nvalue = [0, 1, 47]\nclass = Enrolled", fillcolor="#843de6"] ;
177 -> 178 ;
179 [label="gini = 0.0\nsamples = 42\nvalue = [0, 0, 42]\nclass = Enrolled", fillcolor="#8139e5"] ;
178 -> 179 ;
180 [label="Curricular units 1st sem (approved) <= -0.716\ngini = 0.278\nsamples = 6\nvalue = [0, 1, 5]\nclass = Enrolled", fillcolor="#9a61ea"] ;
178 -> 180 ;
181 [label="gini = 0.0\nsamples = 5\nvalue = [0, 0, 5]\nclass = Enrolled", fillcolor="#8139e5"] ;
180 -> 181 ;
182 [label="gini = 0.0\nsamples = 1\nvalue = [0, 1, 0]\nclass = Graduate", fillcolor="#39e581"] ;
180 -> 182 ;
183 [label="Course <= 0.422\ngini = 0.375\nsamples = 4\nvalue = [0, 1, 3]\nclass = Enrolled", fillcolor="#ab7bee"] ;
177 -> 183 ;
184 [label="gini = 0.0\nsamples = 3\nvalue = [0, 0, 3]\nclass = Enrolled", fillcolor="#8139e5"] ;
183 -> 184 ;
185 [label="gini = 0.0\nsamples = 1\nvalue = [0, 1, 0]\nclass = Graduate", fillcolor="#39e581"] ;
183 -> 185 ;
186 [label="Course <= 0.196\ngini = 0.444\nsamples = 21\nvalue = [0, 7, 14]\nclass = Enrolled", fillcolor="#c09cf2"] ;
166 -> 186 ;
187 [label="Curricular units 1st sem (grade) <= 0.335\ngini = 0.444\nsamples = 9\nvalue = [0, 6, 3]\nclass = Graduate", fillcolor="#9cf2c0"] ;
186 -> 187 ;
188 [label="gini = 0.0\nsamples = 5\nvalue = [0, 5, 0]\nclass = Graduate", fillcolor="#39e581"] ;
187 -> 188 ;
189 [label="Application order <= -0.178\ngini = 0.375\nsamples = 4\nvalue = [0, 1, 3]\nclass = Enrolled", fillcolor="#ab7bee"] ;
187 -> 189 ;
190 [label="gini = 0.0\nsamples = 3\nvalue = [0, 0, 3]\nclass = Enrolled", fillcolor="#8139e5"] ;
189 -> 190 ;
191 [label="gini = 0.0\nsamples = 1\nvalue = [0, 1, 0]\nclass = Graduate", fillcolor="#39e581"] ;
189 -> 191 ;
192 [label="Admission grade <= -1.44\ngini = 0.153\nsamples = 12\nvalue = [0, 1, 11]\nclass = Enrolled", fillcolor="#8c4be7"] ;
186 -> 192 ;
193 [label="gini = 0.0\nsamples = 1\nvalue = [0, 1, 0]\nclass = Graduate", fillcolor="#39e581"] ;
192 -> 193 ;
194 [label="gini = 0.0\nsamples = 11\nvalue = [0, 0, 11]\nclass = Enrolled", fillcolor="#8139e5"] ;
192 -> 194 ;
195 [label="Mother's qualification <= -1.083\ngini = 0.49\nsamples = 7\nvalue = [0, 4, 3]\nclass = Graduate", fillcolor="#cef8e0"] ;
159 -> 195 ;
196 [label="gini = 0.0\nsamples = 3\nvalue = [0, 0, 3]\nclass = Enrolled", fillcolor="#8139e5"] ;
195 -> 196 ;
197 [label="gini = 0.0\nsamples = 4\nvalue = [0, 4, 0]\nclass = Graduate", fillcolor="#39e581"] ;
195 -> 197 ;
198 [label="Curricular units 2nd sem (evaluations) <= -1.27\ngini = 0.375\nsamples = 8\nvalue = [0, 6, 2]\nclass = Graduate", fillcolor="#7beeab"] ;
102 -> 198 ;
199 [label="gini = 0.0\nsamples = 2\nvalue = [0, 0, 2]\nclass = Enrolled", fillcolor="#8139e5"] ;
198 -> 199 ;
200 [label="gini = 0.0\nsamples = 6\nvalue = [0, 6, 0]\nclass = Graduate", fillcolor="#39e581"] ;
198 -> 200 ;
201 [label="Tuition fees up to date <= -1.192\ngini = 0.563\nsamples = 379\nvalue = [28, 161, 190]\nclass = Enrolled", fillcolor="#eee5fc"] ;
1 -> 201 ;
202 [label="Curricular units 2nd sem (evaluations) <= 2.271\ngini = 0.109\nsamples = 69\nvalue = [0, 4, 65]\nclass = Enrolled", fillcolor="#8945e7"] ;
201 -> 202 ;
203 [label="Age at enrollment <= -0.499\ngini = 0.059\nsamples = 66\nvalue = [0, 2, 64]\nclass = Enrolled", fillcolor="#853fe6"] ;
202 -> 203 ;
204 [label="Course <= 0.142\ngini = 0.231\nsamples = 15\nvalue = [0, 2, 13]\nclass = Enrolled", fillcolor="#9457e9"] ;
203 -> 204 ;
205 [label="gini = 0.0\nsamples = 2\nvalue = [0, 2, 0]\nclass = Graduate", fillcolor="#39e581"] ;
204 -> 205 ;
206 [label="gini = 0.0\nsamples = 13\nvalue = [0, 0, 13]\nclass = Enrolled", fillcolor="#8139e5"] ;
204 -> 206 ;
207 [label="gini = 0.0\nsamples = 51\nvalue = [0, 0, 51]\nclass = Enrolled", fillcolor="#8139e5"] ;
203 -> 207 ;
208 [label="Application mode <= 0.674\ngini = 0.444\nsamples = 3\nvalue = [0, 2, 1]\nclass = Graduate", fillcolor="#9cf2c0"] ;
202 -> 208 ;
209 [label="gini = 0.0\nsamples = 1\nvalue = [0, 0, 1]\nclass = Enrolled", fillcolor="#8139e5"] ;
208 -> 209 ;
210 [label="gini = 0.0\nsamples = 2\nvalue = [0, 2, 0]\nclass = Graduate", fillcolor="#39e581"] ;
208 -> 210 ;
211 [label="Age at enrollment <= -0.095\ngini = 0.573\nsamples = 310\nvalue = [28.0, 157.0, 125.0]\nclass = Graduate", fillcolor="#ddfbe9"] ;
201 -> 211 ;
212 [label="Curricular units 1st sem (approved) <= 0.263\ngini = 0.547\nsamples = 227\nvalue = [21, 132, 74]\nclass = Graduate", fillcolor="#b4f5cf"] ;
211 -> 212 ;
213 [label="Course <= 0.422\ngini = 0.517\nsamples = 201\nvalue = [11, 121, 69]\nclass = Graduate", fillcolor="#b1f5cd"] ;
212 -> 213 ;
214 [label="Father's qualification <= 0.99\ngini = 0.498\nsamples = 178\nvalue = [10.0, 113.0, 55.0]\nclass = Graduate", fillcolor="#a2f3c4"] ;
213 -> 214 ;
215 [label="Displaced <= -0.095\ngini = 0.534\nsamples = 146\nvalue = [10, 85, 51]\nclass = Graduate", fillcolor="#b8f6d2"] ;
214 -> 215 ;
216 [label="Application mode <= -0.157\ngini = 0.393\nsamples = 54\nvalue = [1, 40, 13]\nclass = Graduate", fillcolor="#7deeac"] ;
215 -> 216 ;
217 [label="Curricular units 2nd sem (grade) <= 0.7\ngini = 0.083\nsamples = 23\nvalue = [0, 22, 1]\nclass = Graduate", fillcolor="#42e687"] ;
216 -> 217 ;
218 [label="gini = 0.0\nsamples = 22\nvalue = [0, 22, 0]\nclass = Graduate", fillcolor="#39e581"] ;
217 -> 218 ;
219 [label="gini = 0.0\nsamples = 1\nvalue = [0, 0, 1]\nclass = Enrolled", fillcolor="#8139e5"] ;
217 -> 219 ;
220 [label="Application mode <= 0.645\ngini = 0.512\nsamples = 31\nvalue = [1, 18, 12]\nclass = Graduate", fillcolor="#c0f7d7"] ;
216 -> 220 ;
221 [label="Previous qualification (grade) <= -0.427\ngini = 0.521\nsamples = 13\nvalue = [1, 4, 8]\nclass = Enrolled", fillcolor="#c7a7f3"] ;
220 -> 221 ;
222 [label="Curricular units 1st sem (grade) <= -0.095\ngini = 0.444\nsamples = 6\nvalue = [0, 4, 2]\nclass = Graduate", fillcolor="#9cf2c0"] ;
221 -> 222 ;
223 [label="gini = 0.0\nsamples = 2\nvalue = [0, 0, 2]\nclass = Enrolled", fillcolor="#8139e5"] ;
222 -> 223 ;
224 [label="gini = 0.0\nsamples = 4\nvalue = [0, 4, 0]\nclass = Graduate", fillcolor="#39e581"] ;
222 -> 224 ;
225 [label="Curricular units 2nd sem (grade) <= 0.116\ngini = 0.245\nsamples = 7\nvalue = [1, 0, 6]\nclass = Enrolled", fillcolor="#965ae9"] ;
221 -> 225 ;
226 [label="gini = 0.0\nsamples = 1\nvalue = [1, 0, 0]\nclass = Dropout", fillcolor="#e58139"] ;
225 -> 226 ;
227 [label="gini = 0.0\nsamples = 6\nvalue = [0, 0, 6]\nclass = Enrolled", fillcolor="#8139e5"] ;
225 -> 227 ;
228 [label="Age at enrollment <= -0.229\ngini = 0.346\nsamples = 18\nvalue = [0, 14, 4]\nclass = Graduate", fillcolor="#72eca5"] ;
220 -> 228 ;
229 [label="Curricular units 2nd sem (evaluations) <= 1.259\ngini = 0.133\nsamples = 14\nvalue = [0, 13, 1]\nclass = Graduate", fillcolor="#48e78b"] ;
228 -> 229 ;
230 [label="gini = 0.0\nsamples = 12\nvalue = [0, 12, 0]\nclass = Graduate", fillcolor="#39e581"] ;
229 -> 230 ;
231 [label="Father's qualification <= -0.74\ngini = 0.5\nsamples = 2\nvalue = [0, 1, 1]\nclass = Graduate", fillcolor="#ffffff"] ;
229 -> 231 ;
232 [label="gini = 0.0\nsamples = 1\nvalue = [0, 1, 0]\nclass = Graduate", fillcolor="#39e581"] ;
231 -> 232 ;
233 [label="gini = 0.0\nsamples = 1\nvalue = [0, 0, 1]\nclass = Enrolled", fillcolor="#8139e5"] ;
231 -> 233 ;
234 [label="Father's occupation <= -0.146\ngini = 0.375\nsamples = 4\nvalue = [0, 1, 3]\nclass = Enrolled", fillcolor="#ab7bee"] ;
228 -> 234 ;
235 [label="gini = 0.0\nsamples = 3\nvalue = [0, 0, 3]\nclass = Enrolled", fillcolor="#8139e5"] ;
234 -> 235 ;
236 [label="gini = 0.0\nsamples = 1\nvalue = [0, 1, 0]\nclass = Graduate", fillcolor="#39e581"] ;
234 -> 236 ;
237 [label="Gender <= 0.301\ngini = 0.581\nsamples = 92\nvalue = [9, 45, 38]\nclass = Graduate", fillcolor="#e5fcef"] ;
215 -> 237 ;
238 [label="Scholarship holder <= 0.566\ngini = 0.576\nsamples = 47\nvalue = [8.0, 27.0, 12.0]\nclass = Graduate", fillcolor="#aaf4c9"] ;
237 -> 238 ;
239 [label="GDP <= 0.24\ngini = 0.453\nsamples = 37\nvalue = [3, 26, 8]\nclass = Graduate", fillcolor="#84efb1"] ;
238 -> 239 ;
240 [label="Curricular units 2nd sem (approved) <= -0.646\ngini = 0.559\nsamples = 26\nvalue = [3.0, 15.0, 8.0]\nclass = Graduate", fillcolor="#b2f5ce"] ;
239 -> 240 ;
241 [label="Previous qualification (grade) <= -0.616\ngini = 0.497\nsamples = 13\nvalue = [0, 6, 7]\nclass = Enrolled", fillcolor="#ede3fb"] ;
240 -> 241 ;
242 [label="Father's occupation <= -0.261\ngini = 0.32\nsamples = 5\nvalue = [0, 4, 1]\nclass = Graduate", fillcolor="#6aeca0"] ;
241 -> 242 ;
243 [label="gini = 0.0\nsamples = 1\nvalue = [0, 0, 1]\nclass = Enrolled", fillcolor="#8139e5"] ;
242 -> 243 ;
244 [label="gini = 0.0\nsamples = 4\nvalue = [0, 4, 0]\nclass = Graduate", fillcolor="#39e581"] ;
242 -> 244 ;
245 [label="Curricular units 1st sem (evaluations) <= 1.25\ngini = 0.375\nsamples = 8\nvalue = [0, 2, 6]\nclass = Enrolled", fillcolor="#ab7bee"] ;
241 -> 245 ;
246 [label="Father's occupation <= -0.337\ngini = 0.245\nsamples = 7\nvalue = [0, 1, 6]\nclass = Enrolled", fillcolor="#965ae9"] ;
245 -> 246 ;
247 [label="gini = 0.0\nsamples = 1\nvalue = [0, 1, 0]\nclass = Graduate", fillcolor="#39e581"] ;
246 -> 247 ;
248 [label="gini = 0.0\nsamples = 6\nvalue = [0, 0, 6]\nclass = Enrolled", fillcolor="#8139e5"] ;
246 -> 248 ;
249 [label="gini = 0.0\nsamples = 1\nvalue = [0, 1, 0]\nclass = Graduate", fillcolor="#39e581"] ;
245 -> 249 ;
250 [label="Previous qualification (grade) <= -0.238\ngini = 0.462\nsamples = 13\nvalue = [3, 9, 1]\nclass = Graduate", fillcolor="#88efb3"] ;
240 -> 250 ;
251 [label="Curricular units 1st sem (approved) <= -0.063\ngini = 0.219\nsamples = 8\nvalue = [0, 7, 1]\nclass = Graduate", fillcolor="#55e993"] ;
250 -> 251 ;
252 [label="gini = 0.0\nsamples = 7\nvalue = [0, 7, 0]\nclass = Graduate", fillcolor="#39e581"] ;
251 -> 252 ;
253 [label="gini = 0.0\nsamples = 1\nvalue = [0, 0, 1]\nclass = Enrolled", fillcolor="#8139e5"] ;
251 -> 253 ;
254 [label="Application order <= 0.581\ngini = 0.48\nsamples = 5\nvalue = [3, 2, 0]\nclass = Dropout", fillcolor="#f6d5bd"] ;
250 -> 254 ;
255 [label="gini = 0.0\nsamples = 3\nvalue = [3, 0, 0]\nclass = Dropout", fillcolor="#e58139"] ;
254 -> 255 ;
256 [label="gini = 0.0\nsamples = 2\nvalue = [0, 2, 0]\nclass = Graduate", fillcolor="#39e581"] ;
254 -> 256 ;
257 [label="gini = 0.0\nsamples = 11\nvalue = [0, 11, 0]\nclass = Graduate", fillcolor="#39e581"] ;
239 -> 257 ;
258 [label="Mother's qualification <= 0.555\ngini = 0.58\nsamples = 10\nvalue = [5, 1, 4]\nclass = Dropout", fillcolor="#fbeade"] ;
238 -> 258 ;
259 [label="Curricular units 1st sem (grade) <= -0.016\ngini = 0.449\nsamples = 7\nvalue = [5, 1, 1]\nclass = Dropout", fillcolor="#eeab7b"] ;
258 -> 259 ;
260 [label="Father's occupation <= -0.204\ngini = 0.5\nsamples = 2\nvalue = [0, 1, 1]\nclass = Graduate", fillcolor="#ffffff"] ;
259 -> 260 ;
261 [label="gini = 0.0\nsamples = 1\nvalue = [0, 0, 1]\nclass = Enrolled", fillcolor="#8139e5"] ;
260 -> 261 ;
262 [label="gini = 0.0\nsamples = 1\nvalue = [0, 1, 0]\nclass = Graduate", fillcolor="#39e581"] ;
260 -> 262 ;
263 [label="gini = 0.0\nsamples = 5\nvalue = [5, 0, 0]\nclass = Dropout", fillcolor="#e58139"] ;
259 -> 263 ;
264 [label="gini = 0.0\nsamples = 3\nvalue = [0, 0, 3]\nclass = Enrolled", fillcolor="#8139e5"] ;
258 -> 264 ;
265 [label="Unemployment rate <= -0.23\ngini = 0.506\nsamples = 45\nvalue = [1.0, 18.0, 26.0]\nclass = Enrolled", fillcolor="#dac4f7"] ;
237 -> 265 ;
266 [label="Mother's occupation <= -0.319\ngini = 0.523\nsamples = 29\nvalue = [1, 16, 12]\nclass = Graduate", fillcolor="#d0f9e1"] ;
265 -> 266 ;
267 [label="Curricular units 2nd sem (grade) <= 0.372\ngini = 0.444\nsamples = 3\nvalue = [1, 0, 2]\nclass = Enrolled", fillcolor="#c09cf2"] ;
266 -> 267 ;
268 [label="gini = 0.0\nsamples = 2\nvalue = [0, 0, 2]\nclass = Enrolled", fillcolor="#8139e5"] ;
267 -> 268 ;
269 [label="gini = 0.0\nsamples = 1\nvalue = [1, 0, 0]\nclass = Dropout", fillcolor="#e58139"] ;
267 -> 269 ;
270 [label="Admission grade <= 0.335\ngini = 0.473\nsamples = 26\nvalue = [0, 16, 10]\nclass = Graduate", fillcolor="#b5f5d0"] ;
266 -> 270 ;
271 [label="Admission grade <= -0.197\ngini = 0.499\nsamples = 21\nvalue = [0, 11, 10]\nclass = Graduate", fillcolor="#edfdf4"] ;
270 -> 271 ;
272 [label="Mother's qualification <= -0.537\ngini = 0.444\nsamples = 15\nvalue = [0, 10, 5]\nclass = Graduate", fillcolor="#9cf2c0"] ;
271 -> 272 ;
273 [label="Curricular units 1st sem (approved) <= -0.389\ngini = 0.198\nsamples = 9\nvalue = [0, 8, 1]\nclass = Graduate", fillcolor="#52e891"] ;
272 -> 273 ;
274 [label="gini = 0.0\nsamples = 1\nvalue = [0, 0, 1]\nclass = Enrolled", fillcolor="#8139e5"] ;
273 -> 274 ;
275 [label="gini = 0.0\nsamples = 8\nvalue = [0, 8, 0]\nclass = Graduate", fillcolor="#39e581"] ;
273 -> 275 ;
276 [label="Unemployment rate <= -0.642\ngini = 0.444\nsamples = 6\nvalue = [0, 2, 4]\nclass = Enrolled", fillcolor="#c09cf2"] ;
272 -> 276 ;
277 [label="gini = 0.0\nsamples = 3\nvalue = [0, 0, 3]\nclass = Enrolled", fillcolor="#8139e5"] ;
276 -> 277 ;
278 [label="Previous qualification (grade) <= -0.578\ngini = 0.444\nsamples = 3\nvalue = [0, 2, 1]\nclass = Graduate", fillcolor="#9cf2c0"] ;
276 -> 278 ;
279 [label="gini = 0.0\nsamples = 1\nvalue = [0, 0, 1]\nclass = Enrolled", fillcolor="#8139e5"] ;
278 -> 279 ;
280 [label="gini = 0.0\nsamples = 2\nvalue = [0, 2, 0]\nclass = Graduate", fillcolor="#39e581"] ;
278 -> 280 ;
281 [label="Application order <= 1.34\ngini = 0.278\nsamples = 6\nvalue = [0, 1, 5]\nclass = Enrolled", fillcolor="#9a61ea"] ;
271 -> 281 ;
282 [label="gini = 0.0\nsamples = 5\nvalue = [0, 0, 5]\nclass = Enrolled", fillcolor="#8139e5"] ;
281 -> 282 ;
283 [label="gini = 0.0\nsamples = 1\nvalue = [0, 1, 0]\nclass = Graduate", fillcolor="#39e581"] ;
281 -> 283 ;
284 [label="gini = 0.0\nsamples = 5\nvalue = [0, 5, 0]\nclass = Graduate", fillcolor="#39e581"] ;
270 -> 284 ;
285 [label="Age at enrollment <= -0.364\ngini = 0.219\nsamples = 16\nvalue = [0, 2, 14]\nclass = Enrolled", fillcolor="#9355e9"] ;
265 -> 285 ;
286 [label="gini = 0.0\nsamples = 13\nvalue = [0, 0, 13]\nclass = Enrolled", fillcolor="#8139e5"] ;
285 -> 286 ;
287 [label="GDP <= 0.834\ngini = 0.444\nsamples = 3\nvalue = [0, 2, 1]\nclass = Graduate", fillcolor="#9cf2c0"] ;
285 -> 287 ;
288 [label="gini = 0.0\nsamples = 2\nvalue = [0, 2, 0]\nclass = Graduate", fillcolor="#39e581"] ;
287 -> 288 ;
289 [label="gini = 0.0\nsamples = 1\nvalue = [0, 0, 1]\nclass = Enrolled", fillcolor="#8139e5"] ;
287 -> 289 ;
290 [label="Previous qualification (grade) <= -1.031\ngini = 0.219\nsamples = 32\nvalue = [0, 28, 4]\nclass = Graduate", fillcolor="#55e993"] ;
214 -> 290 ;
291 [label="gini = 0.0\nsamples = 1\nvalue = [0, 0, 1]\nclass = Enrolled", fillcolor="#8139e5"] ;
290 -> 291 ;
292 [label="Previous qualification (grade) <= 1.953\ngini = 0.175\nsamples = 31\nvalue = [0, 28, 3]\nclass = Graduate", fillcolor="#4ee88e"] ;
290 -> 292 ;
293 [label="Admission grade <= -0.052\ngini = 0.124\nsamples = 30\nvalue = [0, 28, 2]\nclass = Graduate", fillcolor="#47e78a"] ;
292 -> 293 ;
294 [label="gini = 0.0\nsamples = 21\nvalue = [0, 21, 0]\nclass = Graduate", fillcolor="#39e581"] ;
293 -> 294 ;
295 [label="Mother's occupation <= -0.153\ngini = 0.346\nsamples = 9\nvalue = [0, 7, 2]\nclass = Graduate", fillcolor="#72eca5"] ;
293 -> 295 ;
296 [label="gini = 0.0\nsamples = 6\nvalue = [0, 6, 0]\nclass = Graduate", fillcolor="#39e581"] ;
295 -> 296 ;
297 [label="Previous qualification (grade) <= 0.631\ngini = 0.444\nsamples = 3\nvalue = [0, 1, 2]\nclass = Enrolled", fillcolor="#c09cf2"] ;
295 -> 297 ;
298 [label="gini = 0.0\nsamples = 2\nvalue = [0, 0, 2]\nclass = Enrolled", fillcolor="#8139e5"] ;
297 -> 298 ;
299 [label="gini = 0.0\nsamples = 1\nvalue = [0, 1, 0]\nclass = Graduate", fillcolor="#39e581"] ;
297 -> 299 ;
300 [label="gini = 0.0\nsamples = 1\nvalue = [0, 0, 1]\nclass = Enrolled", fillcolor="#8139e5"] ;
292 -> 300 ;
301 [label="Curricular units 1st sem (grade) <= 0.429\ngini = 0.507\nsamples = 23\nvalue = [1, 8, 14]\nclass = Enrolled", fillcolor="#cdb0f5"] ;
213 -> 301 ;
302 [label="Curricular units 2nd sem (grade) <= 0.244\ngini = 0.426\nsamples = 18\nvalue = [1, 4, 13]\nclass = Enrolled", fillcolor="#ae80ee"] ;
301 -> 302 ;
303 [label="Age at enrollment <= -0.633\ngini = 0.142\nsamples = 13\nvalue = [0, 1, 12]\nclass = Enrolled", fillcolor="#8c49e7"] ;
302 -> 303 ;
304 [label="gini = 0.0\nsamples = 1\nvalue = [0, 1, 0]\nclass = Graduate", fillcolor="#39e581"] ;
303 -> 304 ;
305 [label="gini = 0.0\nsamples = 12\nvalue = [0, 0, 12]\nclass = Enrolled", fillcolor="#8139e5"] ;
303 -> 305 ;
306 [label="Father's qualification <= -0.805\ngini = 0.56\nsamples = 5\nvalue = [1, 3, 1]\nclass = Graduate", fillcolor="#9cf2c0"] ;
302 -> 306 ;
307 [label="Curricular units 1st sem (grade) <= 0.309\ngini = 0.5\nsamples = 2\nvalue = [1, 0, 1]\nclass = Dropout", fillcolor="#ffffff"] ;
306 -> 307 ;
308 [label="gini = 0.0\nsamples = 1\nvalue = [0, 0, 1]\nclass = Enrolled", fillcolor="#8139e5"] ;
307 -> 308 ;
309 [label="gini = 0.0\nsamples = 1\nvalue = [1, 0, 0]\nclass = Dropout", fillcolor="#e58139"] ;
307 -> 309 ;
310 [label="gini = 0.0\nsamples = 3\nvalue = [0, 3, 0]\nclass = Graduate", fillcolor="#39e581"] ;
306 -> 310 ;
311 [label="Father's occupation <= -0.108\ngini = 0.32\nsamples = 5\nvalue = [0, 4, 1]\nclass = Graduate", fillcolor="#6aeca0"] ;
301 -> 311 ;
312 [label="gini = 0.0\nsamples = 4\nvalue = [0, 4, 0]\nclass = Graduate", fillcolor="#39e581"] ;
311 -> 312 ;
313 [label="gini = 0.0\nsamples = 1\nvalue = [0, 0, 1]\nclass = Enrolled", fillcolor="#8139e5"] ;
311 -> 313 ;
314 [label="Age at enrollment <= -0.499\ngini = 0.636\nsamples = 26\nvalue = [10, 11, 5]\nclass = Graduate", fillcolor="#f3fdf7"] ;
212 -> 314 ;
315 [label="Curricular units 1st sem (evaluations) <= -0.178\ngini = 0.298\nsamples = 11\nvalue = [9, 2, 0]\nclass = Dropout", fillcolor="#eb9d65"] ;
314 -> 315 ;
316 [label="Father's occupation <= -0.299\ngini = 0.444\nsamples = 3\nvalue = [1, 2, 0]\nclass = Graduate", fillcolor="#9cf2c0"] ;
315 -> 316 ;
317 [label="gini = 0.0\nsamples = 1\nvalue = [1, 0, 0]\nclass = Dropout", fillcolor="#e58139"] ;
316 -> 317 ;
318 [label="gini = 0.0\nsamples = 2\nvalue = [0, 2, 0]\nclass = Graduate", fillcolor="#39e581"] ;
316 -> 318 ;
319 [label="gini = 0.0\nsamples = 8\nvalue = [8, 0, 0]\nclass = Dropout", fillcolor="#e58139"] ;
315 -> 319 ;
320 [label="Age at enrollment <= -0.364\ngini = 0.524\nsamples = 15\nvalue = [1, 9, 5]\nclass = Graduate", fillcolor="#b0f5cd"] ;
314 -> 320 ;
321 [label="gini = 0.0\nsamples = 6\nvalue = [0, 6, 0]\nclass = Graduate", fillcolor="#39e581"] ;
320 -> 321 ;
322 [label="Course <= 0.166\ngini = 0.568\nsamples = 9\nvalue = [1, 3, 5]\nclass = Enrolled", fillcolor="#d5bdf6"] ;
320 -> 322 ;
323 [label="Mother's qualification <= 1.165\ngini = 0.32\nsamples = 5\nvalue = [1, 0, 4]\nclass = Enrolled", fillcolor="#a06aec"] ;
322 -> 323 ;
324 [label="gini = 0.0\nsamples = 4\nvalue = [0, 0, 4]\nclass = Enrolled", fillcolor="#8139e5"] ;
323 -> 324 ;
325 [label="gini = 0.0\nsamples = 1\nvalue = [1, 0, 0]\nclass = Dropout", fillcolor="#e58139"] ;
323 -> 325 ;
326 [label="Father's occupation <= -0.108\ngini = 0.375\nsamples = 4\nvalue = [0, 3, 1]\nclass = Graduate", fillcolor="#7beeab"] ;
322 -> 326 ;
327 [label="gini = 0.0\nsamples = 3\nvalue = [0, 3, 0]\nclass = Graduate", fillcolor="#39e581"] ;
326 -> 327 ;
328 [label="gini = 0.0\nsamples = 1\nvalue = [0, 0, 1]\nclass = Enrolled", fillcolor="#8139e5"] ;
326 -> 328 ;
329 [label="Previous qualification (grade) <= -0.049\ngini = 0.525\nsamples = 83\nvalue = [7.0, 25.0, 51.0]\nclass = Enrolled", fillcolor="#c7a6f3"] ;
211 -> 329 ;
330 [label="Curricular units 1st sem (credited) <= 1.238\ngini = 0.579\nsamples = 36\nvalue = [4, 19, 13]\nclass = Graduate", fillcolor="#cbf8de"] ;
329 -> 330 ;
331 [label="Curricular units 1st sem (grade) <= 0.129\ngini = 0.553\nsamples = 32\nvalue = [4, 19, 9]\nclass = Graduate", fillcolor="#a9f4c8"] ;
330 -> 331 ;
332 [label="Curricular units 1st sem (approved) <= 0.263\ngini = 0.645\nsamples = 11\nvalue = [3, 3, 5]\nclass = Enrolled", fillcolor="#e0cef8"] ;
331 -> 332 ;
333 [label="Curricular units 1st sem (approved) <= -0.389\ngini = 0.568\nsamples = 9\nvalue = [1, 3, 5]\nclass = Enrolled", fillcolor="#d5bdf6"] ;
332 -> 333 ;
334 [label="Curricular units 2nd sem (evaluations) <= -0.005\ngini = 0.449\nsamples = 7\nvalue = [1, 1, 5]\nclass = Enrolled", fillcolor="#ab7bee"] ;
333 -> 334 ;
335 [label="gini = 0.0\nsamples = 1\nvalue = [0, 1, 0]\nclass = Graduate", fillcolor="#39e581"] ;
334 -> 335 ;
336 [label="Course <= 0.142\ngini = 0.278\nsamples = 6\nvalue = [1, 0, 5]\nclass = Enrolled", fillcolor="#9a61ea"] ;
334 -> 336 ;
337 [label="gini = 0.0\nsamples = 1\nvalue = [1, 0, 0]\nclass = Dropout", fillcolor="#e58139"] ;
336 -> 337 ;
338 [label="gini = 0.0\nsamples = 5\nvalue = [0, 0, 5]\nclass = Enrolled", fillcolor="#8139e5"] ;
336 -> 338 ;
339 [label="gini = 0.0\nsamples = 2\nvalue = [0, 2, 0]\nclass = Graduate", fillcolor="#39e581"] ;
333 -> 339 ;
340 [label="gini = 0.0\nsamples = 2\nvalue = [2, 0, 0]\nclass = Dropout", fillcolor="#e58139"] ;
332 -> 340 ;
341 [label="Curricular units 2nd sem (grade) <= 0.916\ngini = 0.381\nsamples = 21\nvalue = [1, 16, 4]\nclass = Graduate", fillcolor="#73eda6"] ;
331 -> 341 ;
342 [label="Mother's occupation <= -0.337\ngini = 0.32\nsamples = 20\nvalue = [0, 16, 4]\nclass = Graduate", fillcolor="#6aeca0"] ;
341 -> 342 ;
343 [label="Father's qualification <= -1.327\ngini = 0.444\nsamples = 3\nvalue = [0, 1, 2]\nclass = Enrolled", fillcolor="#c09cf2"] ;
342 -> 343 ;
344 [label="gini = 0.0\nsamples = 1\nvalue = [0, 1, 0]\nclass = Graduate", fillcolor="#39e581"] ;
343 -> 344 ;
345 [label="gini = 0.0\nsamples = 2\nvalue = [0, 0, 2]\nclass = Enrolled", fillcolor="#8139e5"] ;
343 -> 345 ;
346 [label="Application order <= 0.96\ngini = 0.208\nsamples = 17\nvalue = [0, 15, 2]\nclass = Graduate", fillcolor="#53e892"] ;
342 -> 346 ;
347 [label="Curricular units 2nd sem (enrolled) <= 0.146\ngini = 0.117\nsamples = 16\nvalue = [0, 15, 1]\nclass = Graduate", fillcolor="#46e789"] ;
346 -> 347 ;
348 [label="gini = 0.0\nsamples = 13\nvalue = [0, 13, 0]\nclass = Graduate", fillcolor="#39e581"] ;
347 -> 348 ;
349 [label="Age at enrollment <= 0.309\ngini = 0.444\nsamples = 3\nvalue = [0, 2, 1]\nclass = Graduate", fillcolor="#9cf2c0"] ;
347 -> 349 ;
350 [label="gini = 0.0\nsamples = 2\nvalue = [0, 2, 0]\nclass = Graduate", fillcolor="#39e581"] ;
349 -> 350 ;
351 [label="gini = 0.0\nsamples = 1\nvalue = [0, 0, 1]\nclass = Enrolled", fillcolor="#8139e5"] ;
349 -> 351 ;
352 [label="gini = 0.0\nsamples = 1\nvalue = [0, 0, 1]\nclass = Enrolled", fillcolor="#8139e5"] ;
346 -> 352 ;
353 [label="gini = 0.0\nsamples = 1\nvalue = [1, 0, 0]\nclass = Dropout", fillcolor="#e58139"] ;
341 -> 353 ;
354 [label="gini = 0.0\nsamples = 4\nvalue = [0, 0, 4]\nclass = Enrolled", fillcolor="#8139e5"] ;
330 -> 354 ;
355 [label="Curricular units 1st sem (grade) <= 0.469\ngini = 0.326\nsamples = 47\nvalue = [3.0, 6.0, 38.0]\nclass = Enrolled", fillcolor="#9d64eb"] ;
329 -> 355 ;
356 [label="Curricular units 2nd sem (enrolled) <= 0.603\ngini = 0.226\nsamples = 40\nvalue = [2, 3, 35]\nclass = Enrolled", fillcolor="#9254e9"] ;
355 -> 356 ;
357 [label="Father's occupation <= 4.571\ngini = 0.188\nsamples = 39\nvalue = [1, 3, 35]\nclass = Enrolled", fillcolor="#8f4fe8"] ;
356 -> 357 ;
358 [label="Scholarship holder <= 0.566\ngini = 0.148\nsamples = 38\nvalue = [1, 2, 35]\nclass = Enrolled", fillcolor="#8c4ae7"] ;
357 -> 358 ;
359 [label="Previous qualification <= 0.601\ngini = 0.105\nsamples = 36\nvalue = [0, 2, 34]\nclass = Enrolled", fillcolor="#8845e7"] ;
358 -> 359 ;
360 [label="gini = 0.0\nsamples = 29\nvalue = [0, 0, 29]\nclass = Enrolled", fillcolor="#8139e5"] ;
359 -> 360 ;
361 [label="Curricular units 2nd sem (enrolled) <= -0.312\ngini = 0.408\nsamples = 7\nvalue = [0, 2, 5]\nclass = Enrolled", fillcolor="#b388ef"] ;
359 -> 361 ;
362 [label="gini = 0.0\nsamples = 2\nvalue = [0, 2, 0]\nclass = Graduate", fillcolor="#39e581"] ;
361 -> 362 ;
363 [label="gini = 0.0\nsamples = 5\nvalue = [0, 0, 5]\nclass = Enrolled", fillcolor="#8139e5"] ;
361 -> 363 ;
364 [label="Daytime/evening attendance <= -1.216\ngini = 0.5\nsamples = 2\nvalue = [1, 0, 1]\nclass = Dropout", fillcolor="#ffffff"] ;
358 -> 364 ;
365 [label="gini = 0.0\nsamples = 1\nvalue = [1, 0, 0]\nclass = Dropout", fillcolor="#e58139"] ;
364 -> 365 ;
366 [label="gini = 0.0\nsamples = 1\nvalue = [0, 0, 1]\nclass = Enrolled", fillcolor="#8139e5"] ;
364 -> 366 ;
367 [label="gini = 0.0\nsamples = 1\nvalue = [0, 1, 0]\nclass = Graduate", fillcolor="#39e581"] ;
357 -> 367 ;
368 [label="gini = 0.0\nsamples = 1\nvalue = [1, 0, 0]\nclass = Dropout", fillcolor="#e58139"] ;
356 -> 368 ;
369 [label="Course <= 0.138\ngini = 0.612\nsamples = 7\nvalue = [1, 3, 3]\nclass = Graduate", fillcolor="#ffffff"] ;
355 -> 369 ;
370 [label="Curricular units 1st sem (grade) <= 0.851\ngini = 0.56\nsamples = 5\nvalue = [1, 3, 1]\nclass = Graduate", fillcolor="#9cf2c0"] ;
369 -> 370 ;
371 [label="gini = 0.0\nsamples = 3\nvalue = [0, 3, 0]\nclass = Graduate", fillcolor="#39e581"] ;
370 -> 371 ;
372 [label="Curricular units 2nd sem (approved) <= -0.646\ngini = 0.5\nsamples = 2\nvalue = [1, 0, 1]\nclass = Dropout", fillcolor="#ffffff"] ;
370 -> 372 ;
373 [label="gini = 0.0\nsamples = 1\nvalue = [0, 0, 1]\nclass = Enrolled", fillcolor="#8139e5"] ;
372 -> 373 ;
374 [label="gini = 0.0\nsamples = 1\nvalue = [1, 0, 0]\nclass = Dropout", fillcolor="#e58139"] ;
372 -> 374 ;
375 [label="gini = 0.0\nsamples = 2\nvalue = [0, 0, 2]\nclass = Enrolled", fillcolor="#8139e5"] ;
369 -> 375 ;
376 [label="Curricular units 2nd sem (approved) <= 0.359\ngini = 0.445\nsamples = 2374\nvalue = [1701, 403, 270]\nclass = Dropout", fillcolor="#eeac7d"] ;
0 -> 376 [labeldistance=2.5, labelangle=-45, headlabel="False"] ;
377 [label="Tuition fees up to date <= -1.192\ngini = 0.604\nsamples = 924\nvalue = [490, 261, 173]\nclass = Dropout", fillcolor="#f6d3bb"] ;
376 -> 377 ;
378 [label="GDP <= 0.834\ngini = 0.454\nsamples = 80\nvalue = [6, 18, 56]\nclass = Enrolled", fillcolor="#b286ef"] ;
377 -> 378 ;
379 [label="Nacionality <= 2.632\ngini = 0.263\nsamples = 54\nvalue = [5, 3, 46]\nclass = Enrolled", fillcolor="#9659e9"] ;
378 -> 379 ;
380 [label="Inflation rate <= -0.896\ngini = 0.152\nsamples = 49\nvalue = [1.0, 3.0, 45.0]\nclass = Enrolled", fillcolor="#8c4ae7"] ;
379 -> 380 ;
381 [label="Father's occupation <= -0.146\ngini = 0.337\nsamples = 14\nvalue = [0, 3, 11]\nclass = Enrolled", fillcolor="#a36fec"] ;
380 -> 381 ;
382 [label="Father's qualification <= -0.805\ngini = 0.165\nsamples = 11\nvalue = [0, 1, 10]\nclass = Enrolled", fillcolor="#8e4de8"] ;
381 -> 382 ;
383 [label="Curricular units 2nd sem (grade) <= 0.286\ngini = 0.5\nsamples = 2\nvalue = [0, 1, 1]\nclass = Graduate", fillcolor="#ffffff"] ;
382 -> 383 ;
384 [label="gini = 0.0\nsamples = 1\nvalue = [0, 1, 0]\nclass = Graduate", fillcolor="#39e581"] ;
383 -> 384 ;
385 [label="gini = 0.0\nsamples = 1\nvalue = [0, 0, 1]\nclass = Enrolled", fillcolor="#8139e5"] ;
383 -> 385 ;
386 [label="gini = 0.0\nsamples = 9\nvalue = [0, 0, 9]\nclass = Enrolled", fillcolor="#8139e5"] ;
382 -> 386 ;
387 [label="Curricular units 1st sem (approved) <= -0.063\ngini = 0.444\nsamples = 3\nvalue = [0, 2, 1]\nclass = Graduate", fillcolor="#9cf2c0"] ;
381 -> 387 ;
388 [label="gini = 0.0\nsamples = 1\nvalue = [0, 0, 1]\nclass = Enrolled", fillcolor="#8139e5"] ;
387 -> 388 ;
389 [label="gini = 0.0\nsamples = 2\nvalue = [0, 2, 0]\nclass = Graduate", fillcolor="#39e581"] ;
387 -> 389 ;
390 [label="Curricular units 1st sem (grade) <= 0.001\ngini = 0.056\nsamples = 35\nvalue = [1, 0, 34]\nclass = Enrolled", fillcolor="#853fe6"] ;
380 -> 390 ;
391 [label="Previous qualification (grade) <= -0.767\ngini = 0.444\nsamples = 3\nvalue = [1, 0, 2]\nclass = Enrolled", fillcolor="#c09cf2"] ;
390 -> 391 ;
392 [label="gini = 0.0\nsamples = 2\nvalue = [0, 0, 2]\nclass = Enrolled", fillcolor="#8139e5"] ;
391 -> 392 ;
393 [label="gini = 0.0\nsamples = 1\nvalue = [1, 0, 0]\nclass = Dropout", fillcolor="#e58139"] ;
391 -> 393 ;
394 [label="gini = 0.0\nsamples = 32\nvalue = [0, 0, 32]\nclass = Enrolled", fillcolor="#8139e5"] ;
390 -> 394 ;
395 [label="Mother's occupation <= -0.19\ngini = 0.32\nsamples = 5\nvalue = [4, 0, 1]\nclass = Dropout", fillcolor="#eca06a"] ;
379 -> 395 ;
396 [label="gini = 0.0\nsamples = 1\nvalue = [0, 0, 1]\nclass = Enrolled", fillcolor="#8139e5"] ;
395 -> 396 ;
397 [label="gini = 0.0\nsamples = 4\nvalue = [4, 0, 0]\nclass = Dropout", fillcolor="#e58139"] ;
395 -> 397 ;
398 [label="Application mode <= 0.559\ngini = 0.518\nsamples = 26\nvalue = [1.0, 15.0, 10.0]\nclass = Graduate", fillcolor="#c1f7d8"] ;
378 -> 398 ;
399 [label="Curricular units 1st sem (grade) <= 0.221\ngini = 0.304\nsamples = 17\nvalue = [1, 14, 2]\nclass = Graduate", fillcolor="#61ea9a"] ;
398 -> 399 ;
400 [label="Father's occupation <= -0.242\ngini = 0.444\nsamples = 3\nvalue = [0, 1, 2]\nclass = Enrolled", fillcolor="#c09cf2"] ;
399 -> 400 ;
401 [label="gini = 0.0\nsamples = 1\nvalue = [0, 1, 0]\nclass = Graduate", fillcolor="#39e581"] ;
400 -> 401 ;
402 [label="gini = 0.0\nsamples = 2\nvalue = [0, 0, 2]\nclass = Enrolled", fillcolor="#8139e5"] ;
400 -> 402 ;
403 [label="Previous qualification (grade) <= -1.522\ngini = 0.133\nsamples = 14\nvalue = [1, 13, 0]\nclass = Graduate", fillcolor="#48e78b"] ;
399 -> 403 ;
404 [label="Father's qualification <= 0.37\ngini = 0.5\nsamples = 2\nvalue = [1, 1, 0]\nclass = Dropout", fillcolor="#ffffff"] ;
403 -> 404 ;
405 [label="gini = 0.0\nsamples = 1\nvalue = [0, 1, 0]\nclass = Graduate", fillcolor="#39e581"] ;
404 -> 405 ;
406 [label="gini = 0.0\nsamples = 1\nvalue = [1, 0, 0]\nclass = Dropout", fillcolor="#e58139"] ;
404 -> 406 ;
407 [label="gini = 0.0\nsamples = 12\nvalue = [0, 12, 0]\nclass = Graduate", fillcolor="#39e581"] ;
403 -> 407 ;
408 [label="Curricular units 2nd sem (evaluations) <= -0.005\ngini = 0.198\nsamples = 9\nvalue = [0, 1, 8]\nclass = Enrolled", fillcolor="#9152e8"] ;
398 -> 408 ;
409 [label="Curricular units 2nd sem (enrolled) <= 0.146\ngini = 0.5\nsamples = 2\nvalue = [0, 1, 1]\nclass = Graduate", fillcolor="#ffffff"] ;
408 -> 409 ;
410 [label="gini = 0.0\nsamples = 1\nvalue = [0, 1, 0]\nclass = Graduate", fillcolor="#39e581"] ;
409 -> 410 ;
411 [label="gini = 0.0\nsamples = 1\nvalue = [0, 0, 1]\nclass = Enrolled", fillcolor="#8139e5"] ;
409 -> 411 ;
412 [label="gini = 0.0\nsamples = 7\nvalue = [0, 0, 7]\nclass = Enrolled", fillcolor="#8139e5"] ;
408 -> 412 ;
413 [label="Curricular units 2nd sem (approved) <= 0.024\ngini = 0.569\nsamples = 844\nvalue = [484.0, 243.0, 117.0]\nclass = Dropout", fillcolor="#f5ccb0"] ;
377 -> 413 ;
414 [label="Course <= 0.466\ngini = 0.63\nsamples = 299\nvalue = [118, 128, 53]\nclass = Graduate", fillcolor="#f4fef8"] ;
413 -> 414 ;
415 [label="Curricular units 1st sem (approved) <= -0.389\ngini = 0.619\nsamples = 260\nvalue = [116, 103, 41]\nclass = Dropout", fillcolor="#fdf5ef"] ;
414 -> 415 ;
416 [label="Previous qualification <= 0.302\ngini = 0.573\nsamples = 67\nvalue = [13, 39, 15]\nclass = Graduate", fillcolor="#a4f3c5"] ;
415 -> 416 ;
417 [label="Mother's occupation <= -0.355\ngini = 0.549\nsamples = 62\nvalue = [13, 38, 11]\nclass = Graduate", fillcolor="#9af2bf"] ;
416 -> 417 ;
418 [label="gini = 0.0\nsamples = 3\nvalue = [3, 0, 0]\nclass = Dropout", fillcolor="#e58139"] ;
417 -> 418 ;
419 [label="Mother's occupation <= 1.409\ngini = 0.522\nsamples = 59\nvalue = [10, 38, 11]\nclass = Graduate", fillcolor="#90f0b8"] ;
417 -> 419 ;
420 [label="Father's occupation <= -0.261\ngini = 0.488\nsamples = 56\nvalue = [9, 38, 9]\nclass = Graduate", fillcolor="#85efb1"] ;
419 -> 420 ;
421 [label="Admission grade <= -0.014\ngini = 0.648\nsamples = 18\nvalue = [5, 8, 5]\nclass = Graduate", fillcolor="#d1f9e2"] ;
420 -> 421 ;
422 [label="Curricular units 2nd sem (grade) <= 0.22\ngini = 0.628\nsamples = 11\nvalue = [4, 2, 5]\nclass = Enrolled", fillcolor="#ede3fb"] ;
421 -> 422 ;
423 [label="Curricular units 1st sem (evaluations) <= 0.536\ngini = 0.444\nsamples = 6\nvalue = [0, 2, 4]\nclass = Enrolled", fillcolor="#c09cf2"] ;
422 -> 423 ;
424 [label="gini = 0.0\nsamples = 4\nvalue = [0, 0, 4]\nclass = Enrolled", fillcolor="#8139e5"] ;
423 -> 424 ;
425 [label="gini = 0.0\nsamples = 2\nvalue = [0, 2, 0]\nclass = Graduate", fillcolor="#39e581"] ;
423 -> 425 ;
426 [label="Gender <= 0.301\ngini = 0.32\nsamples = 5\nvalue = [4, 0, 1]\nclass = Dropout", fillcolor="#eca06a"] ;
422 -> 426 ;
427 [label="gini = 0.0\nsamples = 4\nvalue = [4, 0, 0]\nclass = Dropout", fillcolor="#e58139"] ;
426 -> 427 ;
428 [label="gini = 0.0\nsamples = 1\nvalue = [0, 0, 1]\nclass = Enrolled", fillcolor="#8139e5"] ;
426 -> 428 ;
429 [label="Curricular units 1st sem (evaluations) <= 0.774\ngini = 0.245\nsamples = 7\nvalue = [1, 6, 0]\nclass = Graduate", fillcolor="#5ae996"] ;
421 -> 429 ;
430 [label="gini = 0.0\nsamples = 6\nvalue = [0, 6, 0]\nclass = Graduate", fillcolor="#39e581"] ;
429 -> 430 ;
431 [label="gini = 0.0\nsamples = 1\nvalue = [1, 0, 0]\nclass = Dropout", fillcolor="#e58139"] ;
429 -> 431 ;
432 [label="Age at enrollment <= 0.578\ngini = 0.355\nsamples = 38\nvalue = [4, 30, 4]\nclass = Graduate", fillcolor="#68eb9f"] ;
420 -> 432 ;
433 [label="Curricular units 2nd sem (grade) <= 0.22\ngini = 0.261\nsamples = 34\nvalue = [2, 29, 3]\nclass = Graduate", fillcolor="#59e995"] ;
432 -> 433 ;
434 [label="Father's occupation <= -0.108\ngini = 0.498\nsamples = 15\nvalue = [2, 10, 3]\nclass = Graduate", fillcolor="#8cf0b6"] ;
433 -> 434 ;
435 [label="Curricular units 1st sem (evaluations) <= -0.535\ngini = 0.18\nsamples = 10\nvalue = [0, 9, 1]\nclass = Graduate", fillcolor="#4fe88f"] ;
434 -> 435 ;
436 [label="gini = 0.0\nsamples = 1\nvalue = [0, 0, 1]\nclass = Enrolled", fillcolor="#8139e5"] ;
435 -> 436 ;
437 [label="gini = 0.0\nsamples = 9\nvalue = [0, 9, 0]\nclass = Graduate", fillcolor="#39e581"] ;
435 -> 437 ;
438 [label="Curricular units 1st sem (grade) <= 0.111\ngini = 0.64\nsamples = 5\nvalue = [2, 1, 2]\nclass = Dropout", fillcolor="#ffffff"] ;
434 -> 438 ;
439 [label="Father's qualification <= 0.402\ngini = 0.444\nsamples = 3\nvalue = [2, 1, 0]\nclass = Dropout", fillcolor="#f2c09c"] ;
438 -> 439 ;
440 [label="gini = 0.0\nsamples = 2\nvalue = [2, 0, 0]\nclass = Dropout", fillcolor="#e58139"] ;
439 -> 440 ;
441 [label="gini = 0.0\nsamples = 1\nvalue = [0, 1, 0]\nclass = Graduate", fillcolor="#39e581"] ;
439 -> 441 ;
442 [label="gini = 0.0\nsamples = 2\nvalue = [0, 0, 2]\nclass = Enrolled", fillcolor="#8139e5"] ;
438 -> 442 ;
443 [label="gini = 0.0\nsamples = 19\nvalue = [0, 19, 0]\nclass = Graduate", fillcolor="#39e581"] ;
433 -> 443 ;
444 [label="Curricular units 1st sem (without evaluations) <= 0.542\ngini = 0.625\nsamples = 4\nvalue = [2, 1, 1]\nclass = Dropout", fillcolor="#f6d5bd"] ;
432 -> 444 ;
445 [label="Mother's occupation <= -0.153\ngini = 0.5\nsamples = 2\nvalue = [0, 1, 1]\nclass = Graduate", fillcolor="#ffffff"] ;
444 -> 445 ;
446 [label="gini = 0.0\nsamples = 1\nvalue = [0, 1, 0]\nclass = Graduate", fillcolor="#39e581"] ;
445 -> 446 ;
447 [label="gini = 0.0\nsamples = 1\nvalue = [0, 0, 1]\nclass = Enrolled", fillcolor="#8139e5"] ;
445 -> 447 ;
448 [label="gini = 0.0\nsamples = 2\nvalue = [2, 0, 0]\nclass = Dropout", fillcolor="#e58139"] ;
444 -> 448 ;
449 [label="Curricular units 2nd sem (evaluations) <= -0.385\ngini = 0.444\nsamples = 3\nvalue = [1, 0, 2]\nclass = Enrolled", fillcolor="#c09cf2"] ;
419 -> 449 ;
450 [label="gini = 0.0\nsamples = 1\nvalue = [1, 0, 0]\nclass = Dropout", fillcolor="#e58139"] ;
449 -> 450 ;
451 [label="gini = 0.0\nsamples = 2\nvalue = [0, 0, 2]\nclass = Enrolled", fillcolor="#8139e5"] ;
449 -> 451 ;
452 [label="Age at enrollment <= -0.431\ngini = 0.32\nsamples = 5\nvalue = [0, 1, 4]\nclass = Enrolled", fillcolor="#a06aec"] ;
416 -> 452 ;
453 [label="gini = 0.0\nsamples = 1\nvalue = [0, 1, 0]\nclass = Graduate", fillcolor="#39e581"] ;
452 -> 453 ;
454 [label="gini = 0.0\nsamples = 4\nvalue = [0, 0, 4]\nclass = Enrolled", fillcolor="#8139e5"] ;
452 -> 454 ;
455 [label="Curricular units 1st sem (enrolled) <= -0.292\ngini = 0.587\nsamples = 193\nvalue = [103, 64, 26]\nclass = Dropout", fillcolor="#f7d9c3"] ;
415 -> 455 ;
456 [label="GDP <= -1.583\ngini = 0.417\nsamples = 73\nvalue = [53, 17, 3]\nclass = Dropout", fillcolor="#eeae80"] ;
455 -> 456 ;
457 [label="gini = 0.0\nsamples = 4\nvalue = [0, 4, 0]\nclass = Graduate", fillcolor="#39e581"] ;
456 -> 457 ;
458 [label="GDP <= 0.773\ngini = 0.373\nsamples = 69\nvalue = [53, 13, 3]\nclass = Dropout", fillcolor="#eca572"] ;
456 -> 458 ;
459 [label="Curricular units 2nd sem (without evaluations) <= 3.187\ngini = 0.317\nsamples = 59\nvalue = [48, 8, 3]\nclass = Dropout", fillcolor="#eb9c64"] ;
458 -> 459 ;
460 [label="Curricular units 1st sem (grade) <= 0.825\ngini = 0.275\nsamples = 57\nvalue = [48, 7, 2]\nclass = Dropout", fillcolor="#ea985d"] ;
459 -> 460 ;
461 [label="Application mode <= 1.42\ngini = 0.249\nsamples = 56\nvalue = [48, 7, 1]\nclass = Dropout", fillcolor="#e99659"] ;
460 -> 461 ;
462 [label="Admission grade <= -0.314\ngini = 0.226\nsamples = 55\nvalue = [48, 6, 1]\nclass = Dropout", fillcolor="#e99355"] ;
461 -> 462 ;
463 [label="gini = 0.0\nsamples = 20\nvalue = [20, 0, 0]\nclass = Dropout", fillcolor="#e58139"] ;
462 -> 463 ;
464 [label="Previous qualification (grade) <= -0.049\ngini = 0.33\nsamples = 35\nvalue = [28, 6, 1]\nclass = Dropout", fillcolor="#eb9f69"] ;
462 -> 464 ;
465 [label="Curricular units 1st sem (grade) <= 0.309\ngini = 0.593\nsamples = 9\nvalue = [4, 4, 1]\nclass = Dropout", fillcolor="#ffffff"] ;
464 -> 465 ;
466 [label="Curricular units 2nd sem (evaluations) <= -0.385\ngini = 0.32\nsamples = 5\nvalue = [0, 4, 1]\nclass = Graduate", fillcolor="#6aeca0"] ;
465 -> 466 ;
467 [label="gini = 0.0\nsamples = 1\nvalue = [0, 0, 1]\nclass = Enrolled", fillcolor="#8139e5"] ;
466 -> 467 ;
468 [label="gini = 0.0\nsamples = 4\nvalue = [0, 4, 0]\nclass = Graduate", fillcolor="#39e581"] ;
466 -> 468 ;
469 [label="gini = 0.0\nsamples = 4\nvalue = [4, 0, 0]\nclass = Dropout", fillcolor="#e58139"] ;
465 -> 469 ;
470 [label="Age at enrollment <= 0.915\ngini = 0.142\nsamples = 26\nvalue = [24, 2, 0]\nclass = Dropout", fillcolor="#e78c49"] ;
464 -> 470 ;
471 [label="Curricular units 1st sem (without evaluations) <= 2.016\ngini = 0.08\nsamples = 24\nvalue = [23, 1, 0]\nclass = Dropout", fillcolor="#e68642"] ;
470 -> 471 ;
472 [label="gini = 0.0\nsamples = 21\nvalue = [21, 0, 0]\nclass = Dropout", fillcolor="#e58139"] ;
471 -> 472 ;
473 [label="Father's occupation <= -0.242\ngini = 0.444\nsamples = 3\nvalue = [2, 1, 0]\nclass = Dropout", fillcolor="#f2c09c"] ;
471 -> 473 ;
474 [label="gini = 0.0\nsamples = 1\nvalue = [0, 1, 0]\nclass = Graduate", fillcolor="#39e581"] ;
473 -> 474 ;
475 [label="gini = 0.0\nsamples = 2\nvalue = [2, 0, 0]\nclass = Dropout", fillcolor="#e58139"] ;
473 -> 475 ;
476 [label="Curricular units 2nd sem (evaluations) <= 0.374\ngini = 0.5\nsamples = 2\nvalue = [1, 1, 0]\nclass = Dropout", fillcolor="#ffffff"] ;
470 -> 476 ;
477 [label="gini = 0.0\nsamples = 1\nvalue = [1, 0, 0]\nclass = Dropout", fillcolor="#e58139"] ;
476 -> 477 ;
478 [label="gini = 0.0\nsamples = 1\nvalue = [0, 1, 0]\nclass = Graduate", fillcolor="#39e581"] ;
476 -> 478 ;
479 [label="gini = 0.0\nsamples = 1\nvalue = [0, 1, 0]\nclass = Graduate", fillcolor="#39e581"] ;
461 -> 479 ;
480 [label="gini = 0.0\nsamples = 1\nvalue = [0, 0, 1]\nclass = Enrolled", fillcolor="#8139e5"] ;
460 -> 480 ;
481 [label="Admission grade <= 0.117\ngini = 0.5\nsamples = 2\nvalue = [0, 1, 1]\nclass = Graduate", fillcolor="#ffffff"] ;
459 -> 481 ;
482 [label="gini = 0.0\nsamples = 1\nvalue = [0, 0, 1]\nclass = Enrolled", fillcolor="#8139e5"] ;
481 -> 482 ;
483 [label="gini = 0.0\nsamples = 1\nvalue = [0, 1, 0]\nclass = Graduate", fillcolor="#39e581"] ;
481 -> 483 ;
484 [label="Mother's occupation <= -0.135\ngini = 0.5\nsamples = 10\nvalue = [5, 5, 0]\nclass = Dropout", fillcolor="#ffffff"] ;
458 -> 484 ;
485 [label="Curricular units 1st sem (evaluations) <= -0.654\ngini = 0.278\nsamples = 6\nvalue = [5, 1, 0]\nclass = Dropout", fillcolor="#ea9a61"] ;
484 -> 485 ;
486 [label="gini = 0.0\nsamples = 1\nvalue = [0, 1, 0]\nclass = Graduate", fillcolor="#39e581"] ;
485 -> 486 ;
487 [label="gini = 0.0\nsamples = 5\nvalue = [5, 0, 0]\nclass = Dropout", fillcolor="#e58139"] ;
485 -> 487 ;
488 [label="gini = 0.0\nsamples = 4\nvalue = [0, 4, 0]\nclass = Graduate", fillcolor="#39e581"] ;
484 -> 488 ;
489 [label="Application order <= -0.178\ngini = 0.636\nsamples = 120\nvalue = [50, 47, 23]\nclass = Dropout", fillcolor="#fefaf7"] ;
455 -> 489 ;
490 [label="Scholarship holder <= 0.566\ngini = 0.623\nsamples = 85\nvalue = [28, 41, 16]\nclass = Graduate", fillcolor="#d2f9e2"] ;
489 -> 490 ;
491 [label="Curricular units 2nd sem (credited) <= 1.332\ngini = 0.599\nsamples = 70\nvalue = [18, 38, 14]\nclass = Graduate", fillcolor="#b3f5cf"] ;
490 -> 491 ;
492 [label="Father's occupation <= -0.108\ngini = 0.566\nsamples = 65\nvalue = [17, 38, 10]\nclass = Graduate", fillcolor="#a8f4c8"] ;
491 -> 492 ;
493 [label="Course <= 0.422\ngini = 0.5\nsamples = 42\nvalue = [7, 28, 7]\nclass = Graduate", fillcolor="#88efb3"] ;
492 -> 493 ;
494 [label="Unemployment rate <= 1.175\ngini = 0.464\nsamples = 40\nvalue = [5, 28, 7]\nclass = Graduate", fillcolor="#81eeaf"] ;
493 -> 494 ;
495 [label="Curricular units 1st sem (credited) <= 0.359\ngini = 0.3\nsamples = 29\nvalue = [2, 24, 3]\nclass = Graduate", fillcolor="#5fea99"] ;
494 -> 495 ;
496 [label="Age at enrollment <= -0.633\ngini = 0.156\nsamples = 24\nvalue = [1, 22, 1]\nclass = Graduate", fillcolor="#4ae78c"] ;
495 -> 496 ;
497 [label="Application mode <= -0.559\ngini = 0.5\nsamples = 2\nvalue = [0, 1, 1]\nclass = Graduate", fillcolor="#ffffff"] ;
496 -> 497 ;
498 [label="gini = 0.0\nsamples = 1\nvalue = [0, 1, 0]\nclass = Graduate", fillcolor="#39e581"] ;
497 -> 498 ;
499 [label="gini = 0.0\nsamples = 1\nvalue = [0, 0, 1]\nclass = Enrolled", fillcolor="#8139e5"] ;
497 -> 499 ;
500 [label="Previous qualification (grade) <= -1.598\ngini = 0.087\nsamples = 22\nvalue = [1, 21, 0]\nclass = Graduate", fillcolor="#42e687"] ;
496 -> 500 ;
501 [label="Father's qualification <= -0.218\ngini = 0.5\nsamples = 2\nvalue = [1, 1, 0]\nclass = Dropout", fillcolor="#ffffff"] ;
500 -> 501 ;
502 [label="gini = 0.0\nsamples = 1\nvalue = [1, 0, 0]\nclass = Dropout", fillcolor="#e58139"] ;
501 -> 502 ;
503 [label="gini = 0.0\nsamples = 1\nvalue = [0, 1, 0]\nclass = Graduate", fillcolor="#39e581"] ;
501 -> 503 ;
504 [label="gini = 0.0\nsamples = 20\nvalue = [0, 20, 0]\nclass = Graduate", fillcolor="#39e581"] ;
500 -> 504 ;
505 [label="Father's qualification <= -0.772\ngini = 0.64\nsamples = 5\nvalue = [1, 2, 2]\nclass = Graduate", fillcolor="#ffffff"] ;
495 -> 505 ;
506 [label="gini = 0.0\nsamples = 2\nvalue = [0, 2, 0]\nclass = Graduate", fillcolor="#39e581"] ;
505 -> 506 ;
507 [label="Curricular units 2nd sem (grade) <= 0.393\ngini = 0.444\nsamples = 3\nvalue = [1, 0, 2]\nclass = Enrolled", fillcolor="#c09cf2"] ;
505 -> 507 ;
508 [label="gini = 0.0\nsamples = 2\nvalue = [0, 0, 2]\nclass = Enrolled", fillcolor="#8139e5"] ;
507 -> 508 ;
509 [label="gini = 0.0\nsamples = 1\nvalue = [1, 0, 0]\nclass = Dropout", fillcolor="#e58139"] ;
507 -> 509 ;
510 [label="Application mode <= 1.248\ngini = 0.661\nsamples = 11\nvalue = [3, 4, 4]\nclass = Graduate", fillcolor="#ffffff"] ;
494 -> 510 ;
511 [label="Admission grade <= 0.387\ngini = 0.594\nsamples = 8\nvalue = [3, 1, 4]\nclass = Enrolled", fillcolor="#e6d7fa"] ;
510 -> 511 ;
512 [label="Application mode <= -0.559\ngini = 0.56\nsamples = 5\nvalue = [3, 1, 1]\nclass = Dropout", fillcolor="#f2c09c"] ;
511 -> 512 ;
513 [label="Curricular units 1st sem (evaluations) <= 1.25\ngini = 0.5\nsamples = 2\nvalue = [0, 1, 1]\nclass = Graduate", fillcolor="#ffffff"] ;
512 -> 513 ;
514 [label="gini = 0.0\nsamples = 1\nvalue = [0, 1, 0]\nclass = Graduate", fillcolor="#39e581"] ;
513 -> 514 ;
515 [label="gini = 0.0\nsamples = 1\nvalue = [0, 0, 1]\nclass = Enrolled", fillcolor="#8139e5"] ;
513 -> 515 ;
516 [label="gini = 0.0\nsamples = 3\nvalue = [3, 0, 0]\nclass = Dropout", fillcolor="#e58139"] ;
512 -> 516 ;
517 [label="gini = 0.0\nsamples = 3\nvalue = [0, 0, 3]\nclass = Enrolled", fillcolor="#8139e5"] ;
511 -> 517 ;
518 [label="gini = 0.0\nsamples = 3\nvalue = [0, 3, 0]\nclass = Graduate", fillcolor="#39e581"] ;
510 -> 518 ;
519 [label="gini = 0.0\nsamples = 2\nvalue = [2, 0, 0]\nclass = Dropout", fillcolor="#e58139"] ;
493 -> 519 ;
520 [label="Curricular units 2nd sem (grade) <= 0.594\ngini = 0.605\nsamples = 23\nvalue = [10, 10, 3]\nclass = Dropout", fillcolor="#ffffff"] ;
492 -> 520 ;
521 [label="Curricular units 2nd sem (evaluations) <= -0.385\ngini = 0.598\nsamples = 19\nvalue = [6, 10, 3]\nclass = Graduate", fillcolor="#c2f7d8"] ;
520 -> 521 ;
522 [label="gini = 0.0\nsamples = 2\nvalue = [0, 0, 2]\nclass = Enrolled", fillcolor="#8139e5"] ;
521 -> 522 ;
523 [label="Inflation rate <= -0.498\ngini = 0.526\nsamples = 17\nvalue = [6, 10, 1]\nclass = Graduate", fillcolor="#b7f6d1"] ;
521 -> 523 ;
524 [label="Admission grade <= -0.898\ngini = 0.48\nsamples = 10\nvalue = [6, 4, 0]\nclass = Dropout", fillcolor="#f6d5bd"] ;
523 -> 524 ;
525 [label="gini = 0.0\nsamples = 2\nvalue = [0, 2, 0]\nclass = Graduate", fillcolor="#39e581"] ;
524 -> 525 ;
526 [label="Father's qualification <= 1.055\ngini = 0.375\nsamples = 8\nvalue = [6, 2, 0]\nclass = Dropout", fillcolor="#eeab7b"] ;
524 -> 526 ;
527 [label="Curricular units 2nd sem (evaluations) <= -0.132\ngini = 0.245\nsamples = 7\nvalue = [6, 1, 0]\nclass = Dropout", fillcolor="#e9965a"] ;
526 -> 527 ;
528 [label="gini = 0.0\nsamples = 1\nvalue = [0, 1, 0]\nclass = Graduate", fillcolor="#39e581"] ;
527 -> 528 ;
529 [label="gini = 0.0\nsamples = 6\nvalue = [6, 0, 0]\nclass = Dropout", fillcolor="#e58139"] ;
527 -> 529 ;
530 [label="gini = 0.0\nsamples = 1\nvalue = [0, 1, 0]\nclass = Graduate", fillcolor="#39e581"] ;
526 -> 530 ;
531 [label="Gender <= 0.301\ngini = 0.245\nsamples = 7\nvalue = [0, 6, 1]\nclass = Graduate", fillcolor="#5ae996"] ;
523 -> 531 ;
532 [label="gini = 0.0\nsamples = 6\nvalue = [0, 6, 0]\nclass = Graduate", fillcolor="#39e581"] ;
531 -> 532 ;
533 [label="gini = 0.0\nsamples = 1\nvalue = [0, 0, 1]\nclass = Enrolled", fillcolor="#8139e5"] ;
531 -> 533 ;
534 [label="gini = 0.0\nsamples = 4\nvalue = [4, 0, 0]\nclass = Dropout", fillcolor="#e58139"] ;
520 -> 534 ;
535 [label="Mother's occupation <= -0.374\ngini = 0.32\nsamples = 5\nvalue = [1, 0, 4]\nclass = Enrolled", fillcolor="#a06aec"] ;
491 -> 535 ;
536 [label="gini = 0.0\nsamples = 1\nvalue = [1, 0, 0]\nclass = Dropout", fillcolor="#e58139"] ;
535 -> 536 ;
537 [label="gini = 0.0\nsamples = 4\nvalue = [0, 0, 4]\nclass = Enrolled", fillcolor="#8139e5"] ;
535 -> 537 ;
538 [label="Curricular units 1st sem (approved) <= -0.063\ngini = 0.498\nsamples = 15\nvalue = [10, 3, 2]\nclass = Dropout", fillcolor="#f0b68c"] ;
490 -> 538 ;
539 [label="gini = 0.0\nsamples = 2\nvalue = [0, 2, 0]\nclass = Graduate", fillcolor="#39e581"] ;
538 -> 539 ;
540 [label="Father's qualification <= 0.99\ngini = 0.379\nsamples = 13\nvalue = [10, 1, 2]\nclass = Dropout", fillcolor="#eca36f"] ;
538 -> 540 ;
541 [label="GDP <= 1.213\ngini = 0.165\nsamples = 11\nvalue = [10, 0, 1]\nclass = Dropout", fillcolor="#e88e4d"] ;
540 -> 541 ;
542 [label="gini = 0.0\nsamples = 10\nvalue = [10, 0, 0]\nclass = Dropout", fillcolor="#e58139"] ;
541 -> 542 ;
543 [label="gini = 0.0\nsamples = 1\nvalue = [0, 0, 1]\nclass = Enrolled", fillcolor="#8139e5"] ;
541 -> 543 ;
544 [label="Curricular units 1st sem (grade) <= 0.603\ngini = 0.5\nsamples = 2\nvalue = [0, 1, 1]\nclass = Graduate", fillcolor="#ffffff"] ;
540 -> 544 ;
545 [label="gini = 0.0\nsamples = 1\nvalue = [0, 1, 0]\nclass = Graduate", fillcolor="#39e581"] ;
544 -> 545 ;
546 [label="gini = 0.0\nsamples = 1\nvalue = [0, 0, 1]\nclass = Enrolled", fillcolor="#8139e5"] ;
544 -> 546 ;
547 [label="Curricular units 2nd sem (grade) <= 0.035\ngini = 0.536\nsamples = 35\nvalue = [22, 6, 7]\nclass = Dropout", fillcolor="#f1bc95"] ;
489 -> 547 ;
548 [label="gini = 0.0\nsamples = 2\nvalue = [0, 0, 2]\nclass = Enrolled", fillcolor="#8139e5"] ;
547 -> 548 ;
549 [label="Age at enrollment <= -0.229\ngini = 0.5\nsamples = 33\nvalue = [22, 6, 5]\nclass = Dropout", fillcolor="#f0b48a"] ;
547 -> 549 ;
550 [label="Admission grade <= -1.019\ngini = 0.428\nsamples = 29\nvalue = [21, 6, 2]\nclass = Dropout", fillcolor="#eead7e"] ;
549 -> 550 ;
551 [label="Application order <= 0.581\ngini = 0.49\nsamples = 7\nvalue = [3, 4, 0]\nclass = Graduate", fillcolor="#cef8e0"] ;
550 -> 551 ;
552 [label="Inflation rate <= -0.679\ngini = 0.375\nsamples = 4\nvalue = [3, 1, 0]\nclass = Dropout", fillcolor="#eeab7b"] ;
551 -> 552 ;
553 [label="gini = 0.0\nsamples = 1\nvalue = [0, 1, 0]\nclass = Graduate", fillcolor="#39e581"] ;
552 -> 553 ;
554 [label="gini = 0.0\nsamples = 3\nvalue = [3, 0, 0]\nclass = Dropout", fillcolor="#e58139"] ;
552 -> 554 ;
555 [label="gini = 0.0\nsamples = 3\nvalue = [0, 3, 0]\nclass = Graduate", fillcolor="#39e581"] ;
551 -> 555 ;
556 [label="Admission grade <= 0.1\ngini = 0.314\nsamples = 22\nvalue = [18, 2, 2]\nclass = Dropout", fillcolor="#ea9a61"] ;
550 -> 556 ;
557 [label="Curricular units 1st sem (evaluations) <= 1.012\ngini = 0.111\nsamples = 17\nvalue = [16, 0, 1]\nclass = Dropout", fillcolor="#e78945"] ;
556 -> 557 ;
558 [label="gini = 0.0\nsamples = 16\nvalue = [16, 0, 0]\nclass = Dropout", fillcolor="#e58139"] ;
557 -> 558 ;
559 [label="gini = 0.0\nsamples = 1\nvalue = [0, 0, 1]\nclass = Enrolled", fillcolor="#8139e5"] ;
557 -> 559 ;
560 [label="Application mode <= -0.559\ngini = 0.64\nsamples = 5\nvalue = [2, 2, 1]\nclass = Dropout", fillcolor="#ffffff"] ;
556 -> 560 ;
561 [label="gini = 0.0\nsamples = 2\nvalue = [2, 0, 0]\nclass = Dropout", fillcolor="#e58139"] ;
560 -> 561 ;
562 [label="Course <= 0.152\ngini = 0.444\nsamples = 3\nvalue = [0, 2, 1]\nclass = Graduate", fillcolor="#9cf2c0"] ;
560 -> 562 ;
563 [label="gini = 0.0\nsamples = 2\nvalue = [0, 2, 0]\nclass = Graduate", fillcolor="#39e581"] ;
562 -> 563 ;
564 [label="gini = 0.0\nsamples = 1\nvalue = [0, 0, 1]\nclass = Enrolled", fillcolor="#8139e5"] ;
562 -> 564 ;
565 [label="Curricular units 1st sem (enrolled) <= 0.722\ngini = 0.375\nsamples = 4\nvalue = [1, 0, 3]\nclass = Enrolled", fillcolor="#ab7bee"] ;
549 -> 565 ;
566 [label="gini = 0.0\nsamples = 3\nvalue = [0, 0, 3]\nclass = Enrolled", fillcolor="#8139e5"] ;
565 -> 566 ;
567 [label="gini = 0.0\nsamples = 1\nvalue = [1, 0, 0]\nclass = Dropout", fillcolor="#e58139"] ;
565 -> 567 ;
568 [label="Curricular units 2nd sem (evaluations) <= -0.385\ngini = 0.492\nsamples = 39\nvalue = [2.0, 25.0, 12.0]\nclass = Graduate", fillcolor="#a0f2c2"] ;
414 -> 568 ;
569 [label="gini = 0.0\nsamples = 2\nvalue = [2, 0, 0]\nclass = Dropout", fillcolor="#e58139"] ;
568 -> 569 ;
570 [label="Application order <= 0.581\ngini = 0.438\nsamples = 37\nvalue = [0, 25, 12]\nclass = Graduate", fillcolor="#98f1bd"] ;
568 -> 570 ;
571 [label="Mother's occupation <= -0.117\ngini = 0.389\nsamples = 34\nvalue = [0, 25, 9]\nclass = Graduate", fillcolor="#80eeae"] ;
570 -> 571 ;
572 [label="Mother's qualification <= 0.555\ngini = 0.49\nsamples = 21\nvalue = [0, 12, 9]\nclass = Graduate", fillcolor="#cef8e0"] ;
571 -> 572 ;
573 [label="Gender <= 0.301\ngini = 0.26\nsamples = 13\nvalue = [0, 11, 2]\nclass = Graduate", fillcolor="#5dea98"] ;
572 -> 573 ;
574 [label="gini = 0.0\nsamples = 11\nvalue = [0, 11, 0]\nclass = Graduate", fillcolor="#39e581"] ;
573 -> 574 ;
575 [label="gini = 0.0\nsamples = 2\nvalue = [0, 0, 2]\nclass = Enrolled", fillcolor="#8139e5"] ;
573 -> 575 ;
576 [label="Father's qualification <= 0.99\ngini = 0.219\nsamples = 8\nvalue = [0, 1, 7]\nclass = Enrolled", fillcolor="#9355e9"] ;
572 -> 576 ;
577 [label="gini = 0.0\nsamples = 7\nvalue = [0, 0, 7]\nclass = Enrolled", fillcolor="#8139e5"] ;
576 -> 577 ;
578 [label="gini = 0.0\nsamples = 1\nvalue = [0, 1, 0]\nclass = Graduate", fillcolor="#39e581"] ;
576 -> 578 ;
579 [label="gini = 0.0\nsamples = 13\nvalue = [0, 13, 0]\nclass = Graduate", fillcolor="#39e581"] ;
571 -> 579 ;
580 [label="gini = 0.0\nsamples = 3\nvalue = [0, 0, 3]\nclass = Enrolled", fillcolor="#8139e5"] ;
570 -> 580 ;
581 [label="Curricular units 2nd sem (enrolled) <= 0.146\ngini = 0.491\nsamples = 545\nvalue = [366, 115, 64]\nclass = Dropout", fillcolor="#f0b58b"] ;
413 -> 581 ;
582 [label="Curricular units 1st sem (evaluations) <= -0.178\ngini = 0.445\nsamples = 507\nvalue = [362, 95, 50]\nclass = Dropout", fillcolor="#eead7f"] ;
581 -> 582 ;
583 [label="Debtor <= 1.218\ngini = 0.289\nsamples = 230\nvalue = [192, 19, 19]\nclass = Dropout", fillcolor="#ea985d"] ;
582 -> 583 ;
584 [label="Curricular units 2nd sem (enrolled) <= -0.312\ngini = 0.255\nsamples = 217\nvalue = [186, 17, 14]\nclass = Dropout", fillcolor="#e99558"] ;
583 -> 584 ;
585 [label="Curricular units 2nd sem (grade) <= 0.167\ngini = 0.145\nsamples = 143\nvalue = [132, 6, 5]\nclass = Dropout", fillcolor="#e78b49"] ;
584 -> 585 ;
586 [label="gini = 0.0\nsamples = 2\nvalue = [0, 2, 0]\nclass = Graduate", fillcolor="#39e581"] ;
585 -> 586 ;
587 [label="Application order <= 2.857\ngini = 0.122\nsamples = 141\nvalue = [132, 4, 5]\nclass = Dropout", fillcolor="#e78946"] ;
585 -> 587 ;
588 [label="Curricular units 1st sem (without evaluations) <= 2.016\ngini = 0.097\nsamples = 138\nvalue = [131, 2, 5]\nclass = Dropout", fillcolor="#e68843"] ;
587 -> 588 ;
589 [label="Curricular units 1st sem (credited) <= 1.238\ngini = 0.084\nsamples = 137\nvalue = [131, 1, 5]\nclass = Dropout", fillcolor="#e68742"] ;
588 -> 589 ;
590 [label="Mother's occupation <= -0.355\ngini = 0.071\nsamples = 136\nvalue = [131, 1, 4]\nclass = Dropout", fillcolor="#e68640"] ;
589 -> 590 ;
591 [label="Curricular units 1st sem (grade) <= 0.799\ngini = 0.408\nsamples = 7\nvalue = [5, 0, 2]\nclass = Dropout", fillcolor="#efb388"] ;
590 -> 591 ;
592 [label="gini = 0.0\nsamples = 5\nvalue = [5, 0, 0]\nclass = Dropout", fillcolor="#e58139"] ;
591 -> 592 ;
593 [label="gini = 0.0\nsamples = 2\nvalue = [0, 0, 2]\nclass = Enrolled", fillcolor="#8139e5"] ;
591 -> 593 ;
594 [label="Curricular units 1st sem (grade) <= 0.978\ngini = 0.046\nsamples = 129\nvalue = [126, 1, 2]\nclass = Dropout", fillcolor="#e6843e"] ;
590 -> 594 ;
595 [label="Previous qualification (grade) <= -1.673\ngini = 0.017\nsamples = 116\nvalue = [115, 0, 1]\nclass = Dropout", fillcolor="#e5823b"] ;
594 -> 595 ;
596 [label="Mother's occupation <= -0.117\ngini = 0.245\nsamples = 7\nvalue = [6, 0, 1]\nclass = Dropout", fillcolor="#e9965a"] ;
595 -> 596 ;
597 [label="Course <= 0.343\ngini = 0.5\nsamples = 2\nvalue = [1, 0, 1]\nclass = Dropout", fillcolor="#ffffff"] ;
596 -> 597 ;
598 [label="gini = 0.0\nsamples = 1\nvalue = [1, 0, 0]\nclass = Dropout", fillcolor="#e58139"] ;
597 -> 598 ;
599 [label="gini = 0.0\nsamples = 1\nvalue = [0, 0, 1]\nclass = Enrolled", fillcolor="#8139e5"] ;
597 -> 599 ;
600 [label="gini = 0.0\nsamples = 5\nvalue = [5, 0, 0]\nclass = Dropout", fillcolor="#e58139"] ;
596 -> 600 ;
601 [label="gini = 0.0\nsamples = 109\nvalue = [109, 0, 0]\nclass = Dropout", fillcolor="#e58139"] ;
595 -> 601 ;
602 [label="Curricular units 2nd sem (grade) <= 0.677\ngini = 0.272\nsamples = 13\nvalue = [11, 1, 1]\nclass = Dropout", fillcolor="#e9965a"] ;
594 -> 602 ;
603 [label="gini = 0.0\nsamples = 1\nvalue = [0, 1, 0]\nclass = Graduate", fillcolor="#39e581"] ;
602 -> 603 ;
604 [label="Curricular units 1st sem (grade) <= 1.021\ngini = 0.153\nsamples = 12\nvalue = [11, 0, 1]\nclass = Dropout", fillcolor="#e78c4b"] ;
602 -> 604 ;
605 [label="Father's qualification <= -0.152\ngini = 0.5\nsamples = 2\nvalue = [1, 0, 1]\nclass = Dropout", fillcolor="#ffffff"] ;
604 -> 605 ;
606 [label="gini = 0.0\nsamples = 1\nvalue = [1, 0, 0]\nclass = Dropout", fillcolor="#e58139"] ;
605 -> 606 ;
607 [label="gini = 0.0\nsamples = 1\nvalue = [0, 0, 1]\nclass = Enrolled", fillcolor="#8139e5"] ;
605 -> 607 ;
608 [label="gini = 0.0\nsamples = 10\nvalue = [10, 0, 0]\nclass = Dropout", fillcolor="#e58139"] ;
604 -> 608 ;
609 [label="gini = 0.0\nsamples = 1\nvalue = [0, 0, 1]\nclass = Enrolled", fillcolor="#8139e5"] ;
589 -> 609 ;
610 [label="gini = 0.0\nsamples = 1\nvalue = [0, 1, 0]\nclass = Graduate", fillcolor="#39e581"] ;
588 -> 610 ;
611 [label="Curricular units 2nd sem (evaluations) <= -0.005\ngini = 0.444\nsamples = 3\nvalue = [1, 2, 0]\nclass = Graduate", fillcolor="#9cf2c0"] ;
587 -> 611 ;
612 [label="gini = 0.0\nsamples = 2\nvalue = [0, 2, 0]\nclass = Graduate", fillcolor="#39e581"] ;
611 -> 612 ;
613 [label="gini = 0.0\nsamples = 1\nvalue = [1, 0, 0]\nclass = Dropout", fillcolor="#e58139"] ;
611 -> 613 ;
614 [label="Curricular units 1st sem (approved) <= -0.063\ngini = 0.431\nsamples = 74\nvalue = [54, 11, 9]\nclass = Dropout", fillcolor="#eda978"] ;
584 -> 614 ;
615 [label="gini = 0.0\nsamples = 2\nvalue = [0, 2, 0]\nclass = Graduate", fillcolor="#39e581"] ;
614 -> 615 ;
616 [label="Curricular units 1st sem (enrolled) <= 0.113\ngini = 0.406\nsamples = 72\nvalue = [54, 9, 9]\nclass = Dropout", fillcolor="#eca572"] ;
614 -> 616 ;
617 [label="Course <= 0.196\ngini = 0.379\nsamples = 70\nvalue = [54, 8, 8]\nclass = Dropout", fillcolor="#eca26c"] ;
616 -> 617 ;
618 [label="Mother's qualification <= 1.165\ngini = 0.191\nsamples = 28\nvalue = [25, 3, 0]\nclass = Dropout", fillcolor="#e89051"] ;
617 -> 618 ;
619 [label="Inflation rate <= -1.295\ngini = 0.077\nsamples = 25\nvalue = [24, 1, 0]\nclass = Dropout", fillcolor="#e68641"] ;
618 -> 619 ;
620 [label="gini = 0.0\nsamples = 1\nvalue = [0, 1, 0]\nclass = Graduate", fillcolor="#39e581"] ;
619 -> 620 ;
621 [label="gini = 0.0\nsamples = 24\nvalue = [24, 0, 0]\nclass = Dropout", fillcolor="#e58139"] ;
619 -> 621 ;
622 [label="GDP <= 0.016\ngini = 0.444\nsamples = 3\nvalue = [1, 2, 0]\nclass = Graduate", fillcolor="#9cf2c0"] ;
618 -> 622 ;
623 [label="gini = 0.0\nsamples = 2\nvalue = [0, 2, 0]\nclass = Graduate", fillcolor="#39e581"] ;
622 -> 623 ;
624 [label="gini = 0.0\nsamples = 1\nvalue = [1, 0, 0]\nclass = Dropout", fillcolor="#e58139"] ;
622 -> 624 ;
625 [label="Father's occupation <= -0.299\ngini = 0.473\nsamples = 42\nvalue = [29, 5, 8]\nclass = Dropout", fillcolor="#efb185"] ;
617 -> 625 ;
626 [label="Curricular units 2nd sem (evaluations) <= 0.121\ngini = 0.32\nsamples = 5\nvalue = [1, 0, 4]\nclass = Enrolled", fillcolor="#a06aec"] ;
625 -> 626 ;
627 [label="gini = 0.0\nsamples = 4\nvalue = [0, 0, 4]\nclass = Enrolled", fillcolor="#8139e5"] ;
626 -> 627 ;
628 [label="gini = 0.0\nsamples = 1\nvalue = [1, 0, 0]\nclass = Dropout", fillcolor="#e58139"] ;
626 -> 628 ;
629 [label="Curricular units 2nd sem (grade) <= 0.829\ngini = 0.397\nsamples = 37\nvalue = [28, 5, 4]\nclass = Dropout", fillcolor="#eca471"] ;
625 -> 629 ;
630 [label="Previous qualification (grade) <= -0.389\ngini = 0.348\nsamples = 34\nvalue = [27, 3, 4]\nclass = Dropout", fillcolor="#eb9e67"] ;
629 -> 630 ;
631 [label="gini = 0.0\nsamples = 14\nvalue = [14, 0, 0]\nclass = Dropout", fillcolor="#e58139"] ;
630 -> 631 ;
632 [label="Previous qualification (grade) <= -0.313\ngini = 0.515\nsamples = 20\nvalue = [13, 3, 4]\nclass = Dropout", fillcolor="#f0b890"] ;
630 -> 632 ;
633 [label="gini = 0.0\nsamples = 2\nvalue = [0, 2, 0]\nclass = Graduate", fillcolor="#39e581"] ;
632 -> 633 ;
634 [label="Application order <= -0.178\ngini = 0.426\nsamples = 18\nvalue = [13, 1, 4]\nclass = Dropout", fillcolor="#eeae80"] ;
632 -> 634 ;
635 [label="gini = 0.0\nsamples = 8\nvalue = [8, 0, 0]\nclass = Dropout", fillcolor="#e58139"] ;
634 -> 635 ;
636 [label="GDP <= 0.449\ngini = 0.58\nsamples = 10\nvalue = [5, 1, 4]\nclass = Dropout", fillcolor="#fbeade"] ;
634 -> 636 ;
637 [label="Curricular units 2nd sem (grade) <= 0.321\ngini = 0.32\nsamples = 5\nvalue = [4, 1, 0]\nclass = Dropout", fillcolor="#eca06a"] ;
636 -> 637 ;
638 [label="gini = 0.0\nsamples = 1\nvalue = [0, 1, 0]\nclass = Graduate", fillcolor="#39e581"] ;
637 -> 638 ;
639 [label="gini = 0.0\nsamples = 4\nvalue = [4, 0, 0]\nclass = Dropout", fillcolor="#e58139"] ;
637 -> 639 ;
640 [label="Admission grade <= -0.166\ngini = 0.32\nsamples = 5\nvalue = [1, 0, 4]\nclass = Enrolled", fillcolor="#a06aec"] ;
636 -> 640 ;
641 [label="gini = 0.0\nsamples = 1\nvalue = [1, 0, 0]\nclass = Dropout", fillcolor="#e58139"] ;
640 -> 641 ;
642 [label="gini = 0.0\nsamples = 4\nvalue = [0, 0, 4]\nclass = Enrolled", fillcolor="#8139e5"] ;
640 -> 642 ;
643 [label="Application order <= 0.581\ngini = 0.444\nsamples = 3\nvalue = [1, 2, 0]\nclass = Graduate", fillcolor="#9cf2c0"] ;
629 -> 643 ;
644 [label="gini = 0.0\nsamples = 2\nvalue = [0, 2, 0]\nclass = Graduate", fillcolor="#39e581"] ;
643 -> 644 ;
645 [label="gini = 0.0\nsamples = 1\nvalue = [1, 0, 0]\nclass = Dropout", fillcolor="#e58139"] ;
643 -> 645 ;
646 [label="Father's qualification <= -0.805\ngini = 0.5\nsamples = 2\nvalue = [0, 1, 1]\nclass = Graduate", fillcolor="#ffffff"] ;
616 -> 646 ;
647 [label="gini = 0.0\nsamples = 1\nvalue = [0, 1, 0]\nclass = Graduate", fillcolor="#39e581"] ;
646 -> 647 ;
648 [label="gini = 0.0\nsamples = 1\nvalue = [0, 0, 1]\nclass = Enrolled", fillcolor="#8139e5"] ;
646 -> 648 ;
649 [label="GDP <= 0.834\ngini = 0.615\nsamples = 13\nvalue = [6, 2, 5]\nclass = Dropout", fillcolor="#fcefe6"] ;
583 -> 649 ;
650 [label="Curricular units 2nd sem (evaluations) <= -0.132\ngini = 0.593\nsamples = 9\nvalue = [2, 2, 5]\nclass = Enrolled", fillcolor="#c9aaf4"] ;
649 -> 650 ;
651 [label="gini = 0.0\nsamples = 5\nvalue = [0, 0, 5]\nclass = Enrolled", fillcolor="#8139e5"] ;
650 -> 651 ;
652 [label="Curricular units 2nd sem (grade) <= 0.439\ngini = 0.5\nsamples = 4\nvalue = [2, 2, 0]\nclass = Dropout", fillcolor="#ffffff"] ;
650 -> 652 ;
653 [label="gini = 0.0\nsamples = 2\nvalue = [0, 2, 0]\nclass = Graduate", fillcolor="#39e581"] ;
652 -> 653 ;
654 [label="gini = 0.0\nsamples = 2\nvalue = [2, 0, 0]\nclass = Dropout", fillcolor="#e58139"] ;
652 -> 654 ;
655 [label="gini = 0.0\nsamples = 4\nvalue = [4, 0, 0]\nclass = Dropout", fillcolor="#e58139"] ;
649 -> 655 ;
656 [label="Course <= 0.196\ngini = 0.536\nsamples = 277\nvalue = [170, 76, 31]\nclass = Dropout", fillcolor="#f3c4a2"] ;
582 -> 656 ;
657 [label="Curricular units 1st sem (evaluations) <= 1.012\ngini = 0.469\nsamples = 161\nvalue = [111, 35, 15]\nclass = Dropout", fillcolor="#efb388"] ;
656 -> 657 ;
658 [label="Curricular units 2nd sem (grade) <= 0.85\ngini = 0.424\nsamples = 138\nvalue = [101, 25, 12]\nclass = Dropout", fillcolor="#eeaa7a"] ;
657 -> 658 ;
659 [label="Age at enrollment <= 2.8\ngini = 0.391\nsamples = 132\nvalue = [100, 23, 9]\nclass = Dropout", fillcolor="#eda673"] ;
658 -> 659 ;
660 [label="Curricular units 2nd sem (evaluations) <= 0.627\ngini = 0.377\nsamples = 130\nvalue = [100, 21, 9]\nclass = Dropout", fillcolor="#eca46f"] ;
659 -> 660 ;
661 [label="GDP <= -1.583\ngini = 0.323\nsamples = 101\nvalue = [82, 11, 8]\nclass = Dropout", fillcolor="#ea9c63"] ;
660 -> 661 ;
662 [label="Admission grade <= -0.632\ngini = 0.5\nsamples = 6\nvalue = [3, 0, 3]\nclass = Dropout", fillcolor="#ffffff"] ;
661 -> 662 ;
663 [label="gini = 0.0\nsamples = 3\nvalue = [0, 0, 3]\nclass = Enrolled", fillcolor="#8139e5"] ;
662 -> 663 ;
664 [label="gini = 0.0\nsamples = 3\nvalue = [3, 0, 0]\nclass = Dropout", fillcolor="#e58139"] ;
662 -> 664 ;
665 [label="Curricular units 1st sem (without evaluations) <= 3.49\ngini = 0.292\nsamples = 95\nvalue = [79, 11, 5]\nclass = Dropout", fillcolor="#ea995f"] ;
661 -> 665 ;
666 [label="Unemployment rate <= -0.904\ngini = 0.28\nsamples = 94\nvalue = [79, 10, 5]\nclass = Dropout", fillcolor="#ea985c"] ;
665 -> 666 ;
667 [label="Father's occupation <= -0.108\ngini = 0.521\nsamples = 13\nvalue = [8, 4, 1]\nclass = Dropout", fillcolor="#f3c7a7"] ;
666 -> 667 ;
668 [label="Curricular units 1st sem (approved) <= -1.042\ngini = 0.198\nsamples = 9\nvalue = [8, 1, 0]\nclass = Dropout", fillcolor="#e89152"] ;
667 -> 668 ;
669 [label="gini = 0.0\nsamples = 1\nvalue = [0, 1, 0]\nclass = Graduate", fillcolor="#39e581"] ;
668 -> 669 ;
670 [label="gini = 0.0\nsamples = 8\nvalue = [8, 0, 0]\nclass = Dropout", fillcolor="#e58139"] ;
668 -> 670 ;
671 [label="Curricular units 2nd sem (evaluations) <= 0.121\ngini = 0.375\nsamples = 4\nvalue = [0, 3, 1]\nclass = Graduate", fillcolor="#7beeab"] ;
667 -> 671 ;
672 [label="gini = 0.0\nsamples = 3\nvalue = [0, 3, 0]\nclass = Graduate", fillcolor="#39e581"] ;
671 -> 672 ;
673 [label="gini = 0.0\nsamples = 1\nvalue = [0, 0, 1]\nclass = Enrolled", fillcolor="#8139e5"] ;
671 -> 673 ;
674 [label="Father's occupation <= -0.376\ngini = 0.224\nsamples = 81\nvalue = [71, 6, 4]\nclass = Dropout", fillcolor="#e89253"] ;
666 -> 674 ;
675 [label="gini = 0.0\nsamples = 1\nvalue = [0, 0, 1]\nclass = Enrolled", fillcolor="#8139e5"] ;
674 -> 675 ;
676 [label="Admission grade <= -0.905\ngini = 0.205\nsamples = 80\nvalue = [71, 6, 3]\nclass = Dropout", fillcolor="#e89051"] ;
674 -> 676 ;
677 [label="Age at enrollment <= -0.364\ngini = 0.444\nsamples = 9\nvalue = [6, 3, 0]\nclass = Dropout", fillcolor="#f2c09c"] ;
676 -> 677 ;
678 [label="Father's occupation <= 2.699\ngini = 0.375\nsamples = 4\nvalue = [1, 3, 0]\nclass = Graduate", fillcolor="#7beeab"] ;
677 -> 678 ;
679 [label="gini = 0.0\nsamples = 3\nvalue = [0, 3, 0]\nclass = Graduate", fillcolor="#39e581"] ;
678 -> 679 ;
680 [label="gini = 0.0\nsamples = 1\nvalue = [1, 0, 0]\nclass = Dropout", fillcolor="#e58139"] ;
678 -> 680 ;
681 [label="gini = 0.0\nsamples = 5\nvalue = [5, 0, 0]\nclass = Dropout", fillcolor="#e58139"] ;
677 -> 681 ;
682 [label="Previous qualification (grade) <= -1.371\ngini = 0.158\nsamples = 71\nvalue = [65, 3, 3]\nclass = Dropout", fillcolor="#e78c4a"] ;
676 -> 682 ;
683 [label="gini = 0.0\nsamples = 1\nvalue = [0, 0, 1]\nclass = Enrolled", fillcolor="#8139e5"] ;
682 -> 683 ;
684 [label="Debtor <= 1.218\ngini = 0.135\nsamples = 70\nvalue = [65, 3, 2]\nclass = Dropout", fillcolor="#e78a48"] ;
682 -> 684 ;
685 [label="Application order <= 2.098\ngini = 0.112\nsamples = 68\nvalue = [64, 3, 1]\nclass = Dropout", fillcolor="#e78945"] ;
684 -> 685 ;
686 [label="Curricular units 2nd sem (grade) <= 0.565\ngini = 0.088\nsamples = 66\nvalue = [63, 2, 1]\nclass = Dropout", fillcolor="#e68742"] ;
685 -> 686 ;
687 [label="gini = 0.0\nsamples = 51\nvalue = [51, 0, 0]\nclass = Dropout", fillcolor="#e58139"] ;
686 -> 687 ;
688 [label="Application order <= -0.178\ngini = 0.338\nsamples = 15\nvalue = [12, 2, 1]\nclass = Dropout", fillcolor="#eb9e67"] ;
686 -> 688 ;
689 [label="Father's occupation <= -0.337\ngini = 0.153\nsamples = 12\nvalue = [11, 0, 1]\nclass = Dropout", fillcolor="#e78c4b"] ;
688 -> 689 ;
690 [label="gini = 0.0\nsamples = 1\nvalue = [0, 0, 1]\nclass = Enrolled", fillcolor="#8139e5"] ;
689 -> 690 ;
691 [label="gini = 0.0\nsamples = 11\nvalue = [11, 0, 0]\nclass = Dropout", fillcolor="#e58139"] ;
689 -> 691 ;
692 [label="Previous qualification (grade) <= 1.311\ngini = 0.444\nsamples = 3\nvalue = [1, 2, 0]\nclass = Graduate", fillcolor="#9cf2c0"] ;
688 -> 692 ;
693 [label="gini = 0.0\nsamples = 2\nvalue = [0, 2, 0]\nclass = Graduate", fillcolor="#39e581"] ;
692 -> 693 ;
694 [label="gini = 0.0\nsamples = 1\nvalue = [1, 0, 0]\nclass = Dropout", fillcolor="#e58139"] ;
692 -> 694 ;
695 [label="Curricular units 1st sem (evaluations) <= 0.417\ngini = 0.5\nsamples = 2\nvalue = [1, 1, 0]\nclass = Dropout", fillcolor="#ffffff"] ;
685 -> 695 ;
696 [label="gini = 0.0\nsamples = 1\nvalue = [1, 0, 0]\nclass = Dropout", fillcolor="#e58139"] ;
695 -> 696 ;
697 [label="gini = 0.0\nsamples = 1\nvalue = [0, 1, 0]\nclass = Graduate", fillcolor="#39e581"] ;
695 -> 697 ;
698 [label="Curricular units 1st sem (approved) <= 0.263\ngini = 0.5\nsamples = 2\nvalue = [1, 0, 1]\nclass = Dropout", fillcolor="#ffffff"] ;
684 -> 698 ;
699 [label="gini = 0.0\nsamples = 1\nvalue = [0, 0, 1]\nclass = Enrolled", fillcolor="#8139e5"] ;
698 -> 699 ;
700 [label="gini = 0.0\nsamples = 1\nvalue = [1, 0, 0]\nclass = Dropout", fillcolor="#e58139"] ;
698 -> 700 ;
701 [label="gini = 0.0\nsamples = 1\nvalue = [0, 1, 0]\nclass = Graduate", fillcolor="#39e581"] ;
665 -> 701 ;
702 [label="Mother's occupation <= -0.172\ngini = 0.495\nsamples = 29\nvalue = [18, 10, 1]\nclass = Dropout", fillcolor="#f4caac"] ;
660 -> 702 ;
703 [label="Curricular units 1st sem (without evaluations) <= 0.542\ngini = 0.278\nsamples = 18\nvalue = [15, 3, 0]\nclass = Dropout", fillcolor="#ea9a61"] ;
702 -> 703 ;
704 [label="Previous qualification (grade) <= -0.125\ngini = 0.208\nsamples = 17\nvalue = [15, 2, 0]\nclass = Dropout", fillcolor="#e89253"] ;
703 -> 704 ;
705 [label="gini = 0.0\nsamples = 10\nvalue = [10, 0, 0]\nclass = Dropout", fillcolor="#e58139"] ;
704 -> 705 ;
706 [label="Curricular units 2nd sem (evaluations) <= 0.88\ngini = 0.408\nsamples = 7\nvalue = [5, 2, 0]\nclass = Dropout", fillcolor="#efb388"] ;
704 -> 706 ;
707 [label="gini = 0.0\nsamples = 2\nvalue = [0, 2, 0]\nclass = Graduate", fillcolor="#39e581"] ;
706 -> 707 ;
708 [label="gini = 0.0\nsamples = 5\nvalue = [5, 0, 0]\nclass = Dropout", fillcolor="#e58139"] ;
706 -> 708 ;
709 [label="gini = 0.0\nsamples = 1\nvalue = [0, 1, 0]\nclass = Graduate", fillcolor="#39e581"] ;
703 -> 709 ;
710 [label="Inflation rate <= -0.606\ngini = 0.512\nsamples = 11\nvalue = [3, 7, 1]\nclass = Graduate", fillcolor="#9cf2c0"] ;
702 -> 710 ;
711 [label="Curricular units 1st sem (evaluations) <= 0.06\ngini = 0.56\nsamples = 5\nvalue = [3, 1, 1]\nclass = Dropout", fillcolor="#f2c09c"] ;
710 -> 711 ;
712 [label="Course <= 0.136\ngini = 0.5\nsamples = 2\nvalue = [0, 1, 1]\nclass = Graduate", fillcolor="#ffffff"] ;
711 -> 712 ;
713 [label="gini = 0.0\nsamples = 1\nvalue = [0, 1, 0]\nclass = Graduate", fillcolor="#39e581"] ;
712 -> 713 ;
714 [label="gini = 0.0\nsamples = 1\nvalue = [0, 0, 1]\nclass = Enrolled", fillcolor="#8139e5"] ;
712 -> 714 ;
715 [label="gini = 0.0\nsamples = 3\nvalue = [3, 0, 0]\nclass = Dropout", fillcolor="#e58139"] ;
711 -> 715 ;
716 [label="gini = 0.0\nsamples = 6\nvalue = [0, 6, 0]\nclass = Graduate", fillcolor="#39e581"] ;
710 -> 716 ;
717 [label="gini = 0.0\nsamples = 2\nvalue = [0, 2, 0]\nclass = Graduate", fillcolor="#39e581"] ;
659 -> 717 ;
718 [label="Father's occupation <= -0.337\ngini = 0.611\nsamples = 6\nvalue = [1, 2, 3]\nclass = Enrolled", fillcolor="#e0cef8"] ;
658 -> 718 ;
719 [label="gini = 0.0\nsamples = 1\nvalue = [1, 0, 0]\nclass = Dropout", fillcolor="#e58139"] ;
718 -> 719 ;
720 [label="Curricular units 2nd sem (evaluations) <= 0.121\ngini = 0.48\nsamples = 5\nvalue = [0, 2, 3]\nclass = Enrolled", fillcolor="#d5bdf6"] ;
718 -> 720 ;
721 [label="gini = 0.0\nsamples = 2\nvalue = [0, 0, 2]\nclass = Enrolled", fillcolor="#8139e5"] ;
720 -> 721 ;
722 [label="Curricular units 1st sem (evaluations) <= 0.536\ngini = 0.444\nsamples = 3\nvalue = [0, 2, 1]\nclass = Graduate", fillcolor="#9cf2c0"] ;
720 -> 722 ;
723 [label="gini = 0.0\nsamples = 2\nvalue = [0, 2, 0]\nclass = Graduate", fillcolor="#39e581"] ;
722 -> 723 ;
724 [label="gini = 0.0\nsamples = 1\nvalue = [0, 0, 1]\nclass = Enrolled", fillcolor="#8139e5"] ;
722 -> 724 ;
725 [label="Admission grade <= 1.108\ngini = 0.605\nsamples = 23\nvalue = [10, 10, 3]\nclass = Dropout", fillcolor="#ffffff"] ;
657 -> 725 ;
726 [label="Curricular units 1st sem (approved) <= -0.389\ngini = 0.598\nsamples = 19\nvalue = [6, 10, 3]\nclass = Graduate", fillcolor="#c2f7d8"] ;
725 -> 726 ;
727 [label="Curricular units 2nd sem (evaluations) <= -0.258\ngini = 0.219\nsamples = 8\nvalue = [1, 7, 0]\nclass = Graduate", fillcolor="#55e993"] ;
726 -> 727 ;
728 [label="gini = 0.0\nsamples = 1\nvalue = [1, 0, 0]\nclass = Dropout", fillcolor="#e58139"] ;
727 -> 728 ;
729 [label="gini = 0.0\nsamples = 7\nvalue = [0, 7, 0]\nclass = Graduate", fillcolor="#39e581"] ;
727 -> 729 ;
730 [label="Admission grade <= 0.563\ngini = 0.645\nsamples = 11\nvalue = [5, 3, 3]\nclass = Dropout", fillcolor="#f8e0ce"] ;
726 -> 730 ;
731 [label="Previous qualification (grade) <= -0.729\ngini = 0.469\nsamples = 8\nvalue = [5, 0, 3]\nclass = Dropout", fillcolor="#f5cdb0"] ;
730 -> 731 ;
732 [label="gini = 0.0\nsamples = 2\nvalue = [0, 0, 2]\nclass = Enrolled", fillcolor="#8139e5"] ;
731 -> 732 ;
733 [label="Previous qualification (grade) <= -0.045\ngini = 0.278\nsamples = 6\nvalue = [5, 0, 1]\nclass = Dropout", fillcolor="#ea9a61"] ;
731 -> 733 ;
734 [label="gini = 0.0\nsamples = 5\nvalue = [5, 0, 0]\nclass = Dropout", fillcolor="#e58139"] ;
733 -> 734 ;
735 [label="gini = 0.0\nsamples = 1\nvalue = [0, 0, 1]\nclass = Enrolled", fillcolor="#8139e5"] ;
733 -> 735 ;
736 [label="gini = 0.0\nsamples = 3\nvalue = [0, 3, 0]\nclass = Graduate", fillcolor="#39e581"] ;
730 -> 736 ;
737 [label="gini = 0.0\nsamples = 4\nvalue = [4, 0, 0]\nclass = Dropout", fillcolor="#e58139"] ;
725 -> 737 ;
738 [label="Admission grade <= 0.421\ngini = 0.597\nsamples = 116\nvalue = [59.0, 41.0, 16.0]\nclass = Dropout", fillcolor="#f9e1cf"] ;
656 -> 738 ;
739 [label="GDP <= -1.583\ngini = 0.554\nsamples = 91\nvalue = [53.0, 28.0, 10.0]\nclass = Dropout", fillcolor="#f5cdb0"] ;
738 -> 739 ;
740 [label="Course <= 0.299\ngini = 0.346\nsamples = 9\nvalue = [2, 7, 0]\nclass = Graduate", fillcolor="#72eca5"] ;
739 -> 740 ;
741 [label="gini = 0.0\nsamples = 1\nvalue = [1, 0, 0]\nclass = Dropout", fillcolor="#e58139"] ;
740 -> 741 ;
742 [label="Curricular units 2nd sem (grade) <= 0.666\ngini = 0.219\nsamples = 8\nvalue = [1, 7, 0]\nclass = Graduate", fillcolor="#55e993"] ;
740 -> 742 ;
743 [label="gini = 0.0\nsamples = 7\nvalue = [0, 7, 0]\nclass = Graduate", fillcolor="#39e581"] ;
742 -> 743 ;
744 [label="gini = 0.0\nsamples = 1\nvalue = [1, 0, 0]\nclass = Dropout", fillcolor="#e58139"] ;
742 -> 744 ;
745 [label="Curricular units 1st sem (evaluations) <= 0.536\ngini = 0.533\nsamples = 82\nvalue = [51, 21, 10]\nclass = Dropout", fillcolor="#f2c19e"] ;
739 -> 745 ;
746 [label="Curricular units 1st sem (approved) <= -0.389\ngini = 0.484\nsamples = 74\nvalue = [49, 20, 5]\nclass = Dropout", fillcolor="#f1bb95"] ;
745 -> 746 ;
747 [label="gini = 0.0\nsamples = 2\nvalue = [0, 2, 0]\nclass = Graduate", fillcolor="#39e581"] ;
746 -> 747 ;
748 [label="Curricular units 1st sem (enrolled) <= 0.113\ngini = 0.47\nsamples = 72\nvalue = [49, 18, 5]\nclass = Dropout", fillcolor="#f0b78d"] ;
746 -> 748 ;
749 [label="Curricular units 2nd sem (grade) <= 0.289\ngini = 0.446\nsamples = 69\nvalue = [48, 18, 3]\nclass = Dropout", fillcolor="#f0b58b"] ;
748 -> 749 ;
750 [label="Admission grade <= -0.138\ngini = 0.567\nsamples = 23\nvalue = [12, 9, 2]\nclass = Dropout", fillcolor="#f9e4d5"] ;
749 -> 750 ;
751 [label="Curricular units 2nd sem (grade) <= 0.27\ngini = 0.443\nsamples = 17\nvalue = [12, 4, 1]\nclass = Dropout", fillcolor="#efb185"] ;
750 -> 751 ;
752 [label="Age at enrollment <= -0.633\ngini = 0.375\nsamples = 16\nvalue = [12, 4, 0]\nclass = Dropout", fillcolor="#eeab7b"] ;
751 -> 752 ;
753 [label="Father's occupation <= -0.127\ngini = 0.444\nsamples = 3\nvalue = [1, 2, 0]\nclass = Graduate", fillcolor="#9cf2c0"] ;
752 -> 753 ;
754 [label="gini = 0.0\nsamples = 2\nvalue = [0, 2, 0]\nclass = Graduate", fillcolor="#39e581"] ;
753 -> 754 ;
755 [label="gini = 0.0\nsamples = 1\nvalue = [1, 0, 0]\nclass = Dropout", fillcolor="#e58139"] ;
753 -> 755 ;
756 [label="Curricular units 1st sem (grade) <= 0.572\ngini = 0.26\nsamples = 13\nvalue = [11, 2, 0]\nclass = Dropout", fillcolor="#ea985d"] ;
752 -> 756 ;
757 [label="Previous qualification (grade) <= -2.277\ngini = 0.153\nsamples = 12\nvalue = [11, 1, 0]\nclass = Dropout", fillcolor="#e78c4b"] ;
756 -> 757 ;
758 [label="gini = 0.0\nsamples = 1\nvalue = [0, 1, 0]\nclass = Graduate", fillcolor="#39e581"] ;
757 -> 758 ;
759 [label="gini = 0.0\nsamples = 11\nvalue = [11, 0, 0]\nclass = Dropout", fillcolor="#e58139"] ;
757 -> 759 ;
760 [label="gini = 0.0\nsamples = 1\nvalue = [0, 1, 0]\nclass = Graduate", fillcolor="#39e581"] ;
756 -> 760 ;
761 [label="gini = 0.0\nsamples = 1\nvalue = [0, 0, 1]\nclass = Enrolled", fillcolor="#8139e5"] ;
751 -> 761 ;
762 [label="Previous qualification (grade) <= -0.767\ngini = 0.278\nsamples = 6\nvalue = [0, 5, 1]\nclass = Graduate", fillcolor="#61ea9a"] ;
750 -> 762 ;
763 [label="gini = 0.0\nsamples = 1\nvalue = [0, 0, 1]\nclass = Enrolled", fillcolor="#8139e5"] ;
762 -> 763 ;
764 [label="gini = 0.0\nsamples = 5\nvalue = [0, 5, 0]\nclass = Graduate", fillcolor="#39e581"] ;
762 -> 764 ;
765 [label="Age at enrollment <= 2.464\ngini = 0.349\nsamples = 46\nvalue = [36, 9, 1]\nclass = Dropout", fillcolor="#eca36f"] ;
749 -> 765 ;
766 [label="Father's occupation <= -0.07\ngini = 0.298\nsamples = 44\nvalue = [36, 8, 0]\nclass = Dropout", fillcolor="#eb9d65"] ;
765 -> 766 ;
767 [label="Previous qualification (grade) <= -2.089\ngini = 0.229\nsamples = 38\nvalue = [33, 5, 0]\nclass = Dropout", fillcolor="#e99457"] ;
766 -> 767 ;
768 [label="gini = 0.0\nsamples = 1\nvalue = [0, 1, 0]\nclass = Graduate", fillcolor="#39e581"] ;
767 -> 768 ;
769 [label="Admission grade <= -0.407\ngini = 0.193\nsamples = 37\nvalue = [33, 4, 0]\nclass = Dropout", fillcolor="#e89051"] ;
767 -> 769 ;
